%YAML:1.0
---
opencv_ml_svm:
   format: 3
   svmType: C_SVC
   kernel:
      type: LINEAR
   C: 1.
   term_criteria: { iterations:1000 }
   var_count: 1200
   class_count: 2
   class_labels: !!opencv-matrix
      rows: 2
      cols: 1
      dt: i
      data: [ 0, 1 ]
   sv_total: 1
   support_vectors:
      - [ -2.02854864e-07, -2.02854864e-07, -2.02854864e-07,
          1.43810141e-07, 1.43810141e-07, 1.43810141e-07,
          -2.24877203e-06, -2.24877203e-06, -2.24877203e-06,
          8.92399839e-07, 8.92399839e-07, 8.92399839e-07,
          -5.58583224e-07, -5.58583224e-07, -5.58583224e-07,
          9.31477757e-07, 9.31477757e-07, 9.31477757e-07,
          -5.70594921e-07, -5.70594921e-07, -5.70594921e-07,
          3.37892402e-07, 3.37892402e-07, 3.37892402e-07, 8.58225178e-07,
          8.58225178e-07, 8.58225178e-07, -1.37866868e-06,
          -1.37866868e-06, -1.37866868e-06, 1.27372415e-08,
          1.27372415e-08, 1.27372415e-08, 1.95468033e-06, 1.95468033e-06,
          1.95468033e-06, -2.46865284e-06, -2.46865284e-06,
          -2.46865284e-06, -1.96356609e-06, -1.96356609e-06,
          -1.96356609e-06, 2.35005973e-06, 2.35005973e-06,
          2.35005973e-06, -1.58660816e-06, -1.58660816e-06,
          -1.58660816e-06, -1.1055316e-07, -1.1055316e-07,
          -1.1055316e-07, 7.22798291e-07, 7.22798291e-07, 7.22798291e-07,
          -7.26764085e-07, -7.26764085e-07, -7.26764085e-07,
          8.31245828e-08, 8.31245828e-08, 8.31245828e-08, -1.9658321e-06,
          -1.9658321e-06, -1.9658321e-06, 1.56223189e-06, 1.56223189e-06,
          1.56223189e-06, 5.65882601e-07, 5.65882601e-07, 5.65882601e-07,
          9.45997613e-07, 9.45997613e-07, 9.45997613e-07, 1.3347676e-06,
          1.3347676e-06, 1.3347676e-06, 3.79808995e-07, 3.79808995e-07,
          3.79808995e-07, -1.27164878e-06, -1.27164878e-06,
          -1.27164878e-06, -2.33787603e-07, -2.33787603e-07,
          -2.33787603e-07, -1.63064999e-06, -1.63064999e-06,
          -1.63064999e-06, -2.54190672e-06, -2.54190672e-06,
          -2.54190672e-06, 1.47169555e-06, 1.47169555e-06,
          1.47169555e-06, -5.50277775e-07, -5.50277775e-07,
          -5.50277775e-07, 6.55985218e-07, 6.55985218e-07,
          6.55985218e-07, 4.11927431e-06, 4.11927431e-06, 4.11927431e-06,
          -1.85277756e-07, -1.85277756e-07, -1.85277756e-07,
          2.06878872e-06, 2.06878872e-06, 2.06878872e-06, 9.50098467e-07,
          9.50098467e-07, 9.50098467e-07, -3.48935515e-07,
          -3.48935515e-07, -3.48935515e-07, 6.90313129e-07,
          6.90313129e-07, 6.90313129e-07, 1.93733683e-07, 1.93733683e-07,
          1.93733683e-07, 4.10101109e-07, 4.10101109e-07, 4.10101109e-07,
          6.25164375e-07, 6.25164375e-07, 6.25164375e-07, -3.9625764e-08,
          -3.9625764e-08, -3.9625764e-08, -2.63998317e-07,
          -2.63998317e-07, -2.63998317e-07, -9.59235422e-07,
          -9.59235422e-07, -9.59235422e-07, -3.79588926e-07,
          -3.79588926e-07, -3.79588926e-07, 1.72876264e-06,
          1.72876264e-06, 1.72876264e-06, -2.94250697e-07,
          -2.94250697e-07, -2.94250697e-07, -8.53013898e-06,
          -8.53013898e-06, -8.53013898e-06, -2.44106468e-05,
          -2.44106468e-05, -2.44106468e-05, -6.04548368e-05,
          -6.04548368e-05, -6.04548368e-05, -3.14581994e-05,
          -3.14581994e-05, -3.14581994e-05, -1.11044665e-05,
          -1.11044665e-05, -1.11044665e-05, -2.43970931e-06,
          -2.43970931e-06, -2.43970931e-06, -5.25449423e-07,
          -5.25449423e-07, -5.25449423e-07, -1.23415219e-07,
          -1.23415219e-07, -1.23415219e-07, 1.98350676e-06,
          1.98350676e-06, 1.98350676e-06, 1.63939308e-06, 1.63939308e-06,
          1.63939308e-06, 9.01907615e-09, 9.01907615e-09, 9.01907615e-09,
          5.39720872e-07, 5.39720872e-07, 5.39720872e-07,
          -3.58499506e-08, -3.58499506e-08, -3.58499506e-08,
          -6.17339282e-08, -6.17339282e-08, -6.17339282e-08,
          1.16112346e-06, 1.16112346e-06, 1.16112346e-06, 1.14465003e-07,
          1.14465003e-07, 1.14465003e-07, -1.85611e-07, -1.85611e-07,
          -1.85611e-07, -1.90827745e-06, -1.90827745e-06,
          -1.90827745e-06, -1.01229089e-05, -1.01229089e-05,
          -1.01229089e-05, -1.90827759e-05, -1.90827759e-05,
          -1.90827759e-05, -2.1178068e-05, -2.1178068e-05,
          -2.1178068e-05, 1.55092184e-05, 1.55092184e-05, 1.55092184e-05,
          0.000146241684, 0.000146241684, 0.000146241684, 2.913765e-06,
          2.913765e-06, 2.913765e-06, -2.60394518e-05, -2.60394518e-05,
          -2.60394518e-05, -1.14240156e-05, -1.14240156e-05,
          -1.14240156e-05, 2.38762345e-06, 2.38762345e-06,
          2.38762345e-06, 1.07152628e-05, 1.07152628e-05, 1.07152628e-05,
          7.88377383e-06, 7.88377383e-06, 7.88377383e-06, 6.7460951e-06,
          6.7460951e-06, 6.7460951e-06, 2.21273467e-07, 2.21273467e-07,
          2.21273467e-07, -3.37154404e-07, -3.37154404e-07,
          -3.37154404e-07, -7.33008187e-09, -7.33008187e-09,
          -7.33008187e-09, 1.02044476e-06, 1.02044476e-06,
          1.02044476e-06, -7.43372425e-07, -7.43372425e-07,
          -7.43372425e-07, 1.67637791e-06, 1.67637791e-06,
          1.67637791e-06, 6.19515163e-07, 6.19515163e-07, 6.19515163e-07,
          -7.06362471e-06, -7.06362471e-06, -7.06362471e-06,
          -2.46398158e-05, -2.46398158e-05, -2.46398158e-05,
          1.01082796e-05, 1.01082796e-05, 1.01082796e-05, 7.27182851e-05,
          7.27182851e-05, 7.27182851e-05, 5.37751184e-05, 5.37751184e-05,
          5.37751184e-05, 8.92353055e-05, 8.92353055e-05, 8.92353055e-05,
          7.06259016e-05, 7.06259016e-05, 7.06259016e-05, 8.2765182e-05,
          8.2765182e-05, 8.2765182e-05, -0.000102683131, -0.000102683131,
          -0.000102683131, -2.65402887e-05, -2.65402887e-05,
          -2.65402887e-05, -9.69166649e-06, -9.69166649e-06,
          -9.69166649e-06, -3.74312367e-06, -3.74312367e-06,
          -3.74312367e-06, 7.29599151e-06, 7.29599151e-06,
          7.29599151e-06, -3.46229939e-07, -3.46229939e-07,
          -3.46229939e-07, 6.40084977e-07, 6.40084977e-07,
          6.40084977e-07, 5.85154902e-09, 5.85154902e-09, 5.85154902e-09,
          -6.8643476e-07, -6.8643476e-07, -6.8643476e-07,
          -1.34758963e-07, -1.34758963e-07, -1.34758963e-07,
          -3.16640438e-07, -3.16640438e-07, -3.16640438e-07,
          -2.25078256e-05, -2.25078256e-05, -2.25078256e-05,
          -7.89159676e-05, -7.89159676e-05, -7.89159676e-05,
          -1.08686672e-05, -1.08686672e-05, -1.08686672e-05,
          6.7816909e-05, 6.7816909e-05, 6.7816909e-05, 2.73276128e-05,
          2.73276128e-05, 2.73276128e-05, 4.78809079e-06, 4.78809079e-06,
          4.78809079e-06, 5.98932056e-05, 5.98932056e-05, 5.98932056e-05,
          1.32467776e-05, 1.32467776e-05, 1.32467776e-05, 8.45074901e-05,
          8.45074901e-05, 8.45074901e-05, -5.53609643e-05,
          -5.53609643e-05, -5.53609643e-05, 7.90225749e-06,
          7.90225749e-06, 7.90225749e-06, 3.0718852e-06, 3.0718852e-06,
          3.0718852e-06, -1.21433459e-06, -1.21433459e-06,
          -1.21433459e-06, 5.66338485e-06, 5.66338485e-06,
          5.66338485e-06, 1.84099093e-07, 1.84099093e-07, 1.84099093e-07,
          3.00618041e-07, 3.00618041e-07, 3.00618041e-07,
          -3.31572039e-07, -3.31572039e-07, -3.31572039e-07,
          4.36799439e-07, 4.36799439e-07, 4.36799439e-07, 1.64404651e-06,
          1.64404651e-06, 1.64404651e-06, -5.72650087e-08,
          -5.72650087e-08, -5.72650087e-08, -5.86729875e-05,
          -5.86729875e-05, -5.86729875e-05, -0.000120183373,
          -0.000120183373, -0.000120183373, 5.86032775e-06,
          5.86032775e-06, 5.86032775e-06, 6.03450244e-05, 6.03450244e-05,
          6.03450244e-05, -4.24536702e-05, -4.24536702e-05,
          -4.24536702e-05, -2.7629294e-05, -2.7629294e-05,
          -2.7629294e-05, 2.20914644e-05, 2.20914644e-05, 2.20914644e-05,
          -5.30691832e-05, -5.30691832e-05, -5.30691832e-05,
          1.6295493e-05, 1.6295493e-05, 1.6295493e-05, 5.82068822e-07,
          5.82068822e-07, 5.82068822e-07, 3.05105859e-05, 3.05105859e-05,
          3.05105859e-05, 0.000114584487, 0.000114584487, 0.000114584487,
          5.19312962e-05, 5.19312962e-05, 5.19312962e-05, 3.86751071e-06,
          3.86751071e-06, 3.86751071e-06, 2.33587002e-07, 2.33587002e-07,
          2.33587002e-07, 8.213147e-07, 8.213147e-07, 8.213147e-07,
          9.67578899e-07, 9.67578899e-07, 9.67578899e-07, 2.20879699e-07,
          2.20879699e-07, 2.20879699e-07, -3.88012296e-07,
          -3.88012296e-07, -3.88012296e-07, 3.6054891e-07, 3.6054891e-07,
          3.6054891e-07, -5.42810267e-05, -5.42810267e-05,
          -5.42810267e-05, -3.29619543e-05, -3.29619543e-05,
          -3.29619543e-05, 8.25291936e-05, 8.25291936e-05,
          8.25291936e-05, -4.98717009e-06, -4.98717009e-06,
          -4.98717009e-06, 7.38590597e-06, 7.38590597e-06,
          7.38590597e-06, 8.43184898e-05, 8.43184898e-05, 8.43184898e-05,
          -8.53504534e-05, -8.53504534e-05, -8.53504534e-05,
          -9.24674387e-05, -9.24674387e-05, -9.24674387e-05,
          1.38274197e-06, 1.38274197e-06, 1.38274197e-06, 2.3832843e-05,
          2.3832843e-05, 2.3832843e-05, 8.90085939e-05, 8.90085939e-05,
          8.90085939e-05, 9.84959552e-05, 9.84959552e-05, 9.84959552e-05,
          9.01945969e-05, 9.01945969e-05, 9.01945969e-05, 7.25792734e-06,
          7.25792734e-06, 7.25792734e-06, -2.19055473e-05,
          -2.19055473e-05, -2.19055473e-05, 3.47343871e-07,
          3.47343871e-07, 3.47343871e-07, -1.9078077e-06, -1.9078077e-06,
          -1.9078077e-06, 2.56312546e-06, 2.56312546e-06, 2.56312546e-06,
          -1.60173147e-06, -1.60173147e-06, -1.60173147e-06,
          2.61853929e-05, 2.61853929e-05, 2.61853929e-05, 1.69832765e-05,
          1.69832765e-05, 1.69832765e-05, -4.76728076e-07,
          -4.76728076e-07, -4.76728076e-07, 1.60739928e-05,
          1.60739928e-05, 1.60739928e-05, -7.86732999e-05,
          -7.86732999e-05, -7.86732999e-05, 0.000115703493,
          0.000115703493, 0.000115703493, 2.41276084e-05, 2.41276084e-05,
          2.41276084e-05, -0.000187913785, -0.000187913785,
          -0.000187913785, -0.000138600459, -0.000138600459,
          -0.000138600459, 3.07000482e-05, 3.07000482e-05,
          3.07000482e-05, 8.8661167e-05, 8.8661167e-05, 8.8661167e-05,
          0.000141629411, 0.000141629411, 0.000141629411, 9.001117e-05,
          9.001117e-05, 9.001117e-05, 8.1212238e-05, 8.1212238e-05,
          8.1212238e-05, 2.99472758e-05, 2.99472758e-05, 2.99472758e-05,
          -1.69784198e-05, -1.69784198e-05, -1.69784198e-05,
          -1.14200589e-06, -1.14200589e-06, -1.14200589e-06,
          2.06807684e-07, 2.06807684e-07, 2.06807684e-07, 2.51608799e-06,
          2.51608799e-06, 2.51608799e-06, 5.8468213e-06, 5.8468213e-06,
          5.8468213e-06, 4.85359014e-05, 4.85359014e-05, 4.85359014e-05,
          8.70046133e-05, 8.70046133e-05, 8.70046133e-05, 1.69885261e-05,
          1.69885261e-05, 1.69885261e-05, 3.05746544e-05, 3.05746544e-05,
          3.05746544e-05, 0.000115744471, 0.000115744471, 0.000115744471,
          0.000207700548, 0.000207700548, 0.000207700548,
          -0.000112697533, -0.000112697533, -0.000112697533,
          -0.000431396096, -0.000431396096, -0.000431396096,
          -0.000142953591, -0.000142953591, -0.000142953591,
          7.01366662e-06, 7.01366662e-06, 7.01366662e-06,
          -1.97826612e-05, -1.97826612e-05, -1.97826612e-05,
          0.000139287644, 0.000139287644, 0.000139287644, 9.0274887e-05,
          9.0274887e-05, 9.0274887e-05, 8.12200524e-05, 8.12200524e-05,
          8.12200524e-05, 5.61072629e-05, 5.61072629e-05, 5.61072629e-05,
          -2.04803291e-06, -2.04803291e-06, -2.04803291e-06,
          -1.29260263e-06, -1.29260263e-06, -1.29260263e-06,
          2.73938326e-07, 2.73938326e-07, 2.73938326e-07,
          -1.44676335e-06, -1.44676335e-06, -1.44676335e-06,
          -2.45702125e-07, -2.45702125e-07, -2.45702125e-07,
          5.50194563e-05, 5.50194563e-05, 5.50194563e-05, 0.000125783175,
          0.000125783175, 0.000125783175, 0.000120756114, 0.000120756114,
          0.000120756114, -1.29731707e-05, -1.29731707e-05,
          -1.29731707e-05, 0.000259726483, 0.000259726483,
          0.000259726483, 0.000142903024, 0.000142903024, 0.000142903024,
          -0.000144092381, -0.000144092381, -0.000144092381,
          -0.000522067945, -0.000522067945, -0.000522067945,
          -6.60164442e-05, -6.60164442e-05, -6.60164442e-05,
          6.68575303e-05, 6.68575303e-05, 6.68575303e-05,
          -2.02164847e-05, -2.02164847e-05, -2.02164847e-05,
          0.000105679428, 0.000105679428, 0.000105679428, 5.3915297e-05,
          5.3915297e-05, 5.3915297e-05, 8.26698379e-05, 8.26698379e-05,
          8.26698379e-05, 6.2274652e-05, 6.2274652e-05, 6.2274652e-05,
          -7.33108209e-06, -7.33108209e-06, -7.33108209e-06,
          -2.77404547e-06, -2.77404547e-06, -2.77404547e-06,
          5.0827939e-06, 5.0827939e-06, 5.0827939e-06, -3.89199471e-07,
          -3.89199471e-07, -3.89199471e-07, 7.26158805e-06,
          7.26158805e-06, 7.26158805e-06, 3.90531532e-05, 3.90531532e-05,
          3.90531532e-05, 0.00011354022, 0.00011354022, 0.00011354022,
          0.000136067451, 0.000136067451, 0.000136067451, 0.000101948892,
          0.000101948892, 0.000101948892, 0.000258476357, 0.000258476357,
          0.000258476357, 9.74645664e-05, 9.74645664e-05, 9.74645664e-05,
          -0.000268284988, -0.000268284988, -0.000268284988,
          -0.000426934159, -0.000426934159, -0.000426934159,
          -1.4367296e-05, -1.4367296e-05, -1.4367296e-05, 3.33600183e-05,
          3.33600183e-05, 3.33600183e-05, -3.8272814e-05, -3.8272814e-05,
          -3.8272814e-05, 0.000113786336, 0.000113786336, 0.000113786336,
          8.42873487e-05, 8.42873487e-05, 8.42873487e-05, 9.58812307e-05,
          9.58812307e-05, 9.58812307e-05, 5.91264652e-05, 5.91264652e-05,
          5.91264652e-05, -4.31561284e-06, -4.31561284e-06,
          -4.31561284e-06, 3.56752622e-07, 3.56752622e-07,
          3.56752622e-07, -1.84172336e-06, -1.84172336e-06,
          -1.84172336e-06, -1.92032687e-07, -1.92032687e-07,
          -1.92032687e-07, -2.07236621e-06, -2.07236621e-06,
          -2.07236621e-06, 1.92467451e-05, 1.92467451e-05,
          1.92467451e-05, 7.14463822e-05, 7.14463822e-05, 7.14463822e-05,
          0.000149676649, 0.000149676649, 0.000149676649,
          -4.85658666e-06, -4.85658666e-06, -4.85658666e-06,
          0.000196981913, 0.000196981913, 0.000196981913, 0.000104679901,
          0.000104679901, 0.000104679901, -0.000157038827,
          -0.000157038827, -0.000157038827, -0.000145278827,
          -0.000145278827, -0.000145278827, 6.15083627e-05,
          6.15083627e-05, 6.15083627e-05, 0.000184792603, 0.000184792603,
          0.000184792603, 5.52956044e-05, 5.52956044e-05, 5.52956044e-05,
          5.42367598e-05, 5.42367598e-05, 5.42367598e-05, 0.000133263733,
          0.000133263733, 0.000133263733, 0.00011177444, 0.00011177444,
          0.00011177444, 2.40461268e-05, 2.40461268e-05, 2.40461268e-05,
          6.28785074e-07, 6.28785074e-07, 6.28785074e-07, 1.22459869e-06,
          1.22459869e-06, 1.22459869e-06, -1.26606005e-06,
          -1.26606005e-06, -1.26606005e-06, 8.46815328e-06,
          8.46815328e-06, 8.46815328e-06, -4.80579615e-07,
          -4.80579615e-07, -4.80579615e-07, 2.28715562e-05,
          2.28715562e-05, 2.28715562e-05, 2.34008112e-05, 2.34008112e-05,
          2.34008112e-05, 0.000109024564, 0.000109024564, 0.000109024564,
          2.49729851e-06, 2.49729851e-06, 2.49729851e-06, 9.28084264e-05,
          9.28084264e-05, 9.28084264e-05, 0.000111589274, 0.000111589274,
          0.000111589274, -0.000224306248, -0.000224306248,
          -0.000224306248, -8.74717007e-05, -8.74717007e-05,
          -8.74717007e-05, 0.000124110768, 0.000124110768,
          0.000124110768, 0.000168443483, 0.000168443483, 0.000168443483,
          1.88200775e-05, 1.88200775e-05, 1.88200775e-05,
          -2.11916067e-05, -2.11916067e-05, -2.11916067e-05,
          0.000108283835, 0.000108283835, 0.000108283835, 7.8285093e-06,
          7.8285093e-06, 7.8285093e-06, -2.36231863e-05, -2.36231863e-05,
          -2.36231863e-05, -1.2253364e-06, -1.2253364e-06,
          -1.2253364e-06, -2.2488266e-06, -2.2488266e-06, -2.2488266e-06,
          -1.18428495e-07, -1.18428495e-07, -1.18428495e-07,
          -1.749023e-06, -1.749023e-06, -1.749023e-06, 9.18542298e-07,
          9.18542298e-07, 9.18542298e-07, 1.96395067e-05, 1.96395067e-05,
          1.96395067e-05, -2.84003745e-05, -2.84003745e-05,
          -2.84003745e-05, 7.30722313e-05, 7.30722313e-05,
          7.30722313e-05, -2.23384322e-05, -2.23384322e-05,
          -2.23384322e-05, 3.60451813e-05, 3.60451813e-05,
          3.60451813e-05, 5.02767907e-05, 5.02767907e-05, 5.02767907e-05,
          -7.75630469e-05, -7.75630469e-05, -7.75630469e-05,
          -7.38335948e-05, -7.38335948e-05, -7.38335948e-05,
          0.000113379538, 0.000113379538, 0.000113379538, 2.73721107e-05,
          2.73721107e-05, 2.73721107e-05, -5.56804807e-05,
          -5.56804807e-05, -5.56804807e-05, -7.36817747e-05,
          -7.36817747e-05, -7.36817747e-05, -5.41127265e-05,
          -5.41127265e-05, -5.41127265e-05, -0.000149484171,
          -0.000149484171, -0.000149484171, -0.000134042581,
          -0.000134042581, -0.000134042581, -1.6353637e-05,
          -1.6353637e-05, -1.6353637e-05, 8.99096165e-07, 8.99096165e-07,
          8.99096165e-07, -1.85879787e-06, -1.85879787e-06,
          -1.85879787e-06, -3.52284445e-07, -3.52284445e-07,
          -3.52284445e-07, 3.17220582e-07, 3.17220582e-07,
          3.17220582e-07, 1.57612394e-05, 1.57612394e-05, 1.57612394e-05,
          1.69616997e-05, 1.69616997e-05, 1.69616997e-05, 6.08368682e-05,
          6.08368682e-05, 6.08368682e-05, -6.6238521e-05, -6.6238521e-05,
          -6.6238521e-05, 4.03112972e-05, 4.03112972e-05, 4.03112972e-05,
          8.05673917e-05, 8.05673917e-05, 8.05673917e-05, 8.598555e-05,
          8.598555e-05, 8.598555e-05, 0.000120342986, 0.000120342986,
          0.000120342986, 0.00014624653, 0.00014624653, 0.00014624653,
          -2.56970343e-05, -2.56970343e-05, -2.56970343e-05,
          -7.38674571e-05, -7.38674571e-05, -7.38674571e-05,
          -4.01284269e-05, -4.01284269e-05, -4.01284269e-05,
          -7.81438066e-05, -7.81438066e-05, -7.81438066e-05,
          -0.000126884741, -0.000126884741, -0.000126884741,
          -0.000136123912, -0.000136123912, -0.000136123912,
          -6.95204872e-05, -6.95204872e-05, -6.95204872e-05,
          3.05550543e-07, 3.05550543e-07, 3.05550543e-07,
          -6.03969511e-07, -6.03969511e-07, -6.03969511e-07,
          -2.72005906e-07, -2.72005906e-07, -2.72005906e-07,
          1.93421579e-06, 1.93421579e-06, 1.93421579e-06, 1.41734836e-05,
          1.41734836e-05, 1.41734836e-05, 5.52946731e-05, 5.52946731e-05,
          5.52946731e-05, 4.38326715e-05, 4.38326715e-05, 4.38326715e-05,
          2.71550016e-05, 2.71550016e-05, 2.71550016e-05, 7.77976238e-05,
          7.77976238e-05, 7.77976238e-05, 0.000113993396, 0.000113993396,
          0.000113993396, 0.000205090008, 0.000205090008, 0.000205090008,
          0.000159567717, 0.000159567717, 0.000159567717, 5.63906542e-06,
          5.63906542e-06, 5.63906542e-06, -1.64109533e-05,
          -1.64109533e-05, -1.64109533e-05, 5.66794151e-05,
          5.66794151e-05, 5.66794151e-05, 3.4351564e-05, 3.4351564e-05,
          3.4351564e-05, -1.89838975e-05, -1.89838975e-05,
          -1.89838975e-05, -2.79291617e-05, -2.79291617e-05,
          -2.79291617e-05, -2.90463286e-05, -2.90463286e-05,
          -2.90463286e-05, -1.67574981e-05, -1.67574981e-05,
          -1.67574981e-05, -1.67574967e-06, -1.67574967e-06,
          -1.67574967e-06, 1.22059009e-06, 1.22059009e-06,
          1.22059009e-06, 8.89441708e-06, 8.89441708e-06, 8.89441708e-06,
          -1.35573896e-06, -1.35573896e-06, -1.35573896e-06,
          1.90628398e-05, 1.90628398e-05, 1.90628398e-05, 3.88462686e-05,
          3.88462686e-05, 3.88462686e-05, 3.05140984e-05, 3.05140984e-05,
          3.05140984e-05, 3.01921064e-05, 3.01921064e-05, 3.01921064e-05,
          5.29275821e-05, 5.29275821e-05, 5.29275821e-05, 3.7337697e-05,
          3.7337697e-05, 3.7337697e-05, 6.1366758e-05, 6.1366758e-05,
          6.1366758e-05, 6.5195527e-05, 6.5195527e-05, 6.5195527e-05,
          6.42266923e-06, 6.42266923e-06, 6.42266923e-06, 2.09927803e-05,
          2.09927803e-05, 2.09927803e-05, 2.53578874e-05, 2.53578874e-05,
          2.53578874e-05, -1.38853875e-06, -1.38853875e-06,
          -1.38853875e-06, 5.96661221e-06, 5.96661221e-06,
          5.96661221e-06, 0., 0., 0., -1.11716645e-06, -1.11716645e-06,
          -1.11716645e-06, 0., 0., 0., 0., 0., 0., 7.49352694e-07,
          7.49352694e-07, 7.49352694e-07, -6.27020142e-07,
          -6.27020142e-07, -6.27020142e-07, -5.96965549e-07,
          -5.96965549e-07, -5.96965549e-07, 1.01494004e-06,
          1.01494004e-06, 1.01494004e-06, 3.76167259e-06, 3.76167259e-06,
          3.76167259e-06, 1.08978418e-06, 1.08978418e-06, 1.08978418e-06,
          3.5411831e-06, 3.5411831e-06, 3.5411831e-06, 8.34955713e-08,
          8.34955713e-08, 8.34955713e-08, -9.22343077e-07,
          -9.22343077e-07, -9.22343077e-07, 4.73061937e-06,
          4.73061937e-06, 4.73061937e-06, 3.99535929e-06, 3.99535929e-06,
          3.99535929e-06, -5.8397859e-08, -5.8397859e-08, -5.8397859e-08,
          4.31477611e-06, 4.31477611e-06, 4.31477611e-06, 1.85036276e-06,
          1.85036276e-06, 1.85036276e-06, -4.08307358e-07,
          -4.08307358e-07, -4.08307358e-07, 5.80430282e-08,
          5.80430282e-08, 5.80430282e-08, -1.11716645e-06,
          -1.11716645e-06, -1.11716645e-06, -1.11716645e-06,
          -1.11716645e-06, -1.11716645e-06, 0., 0., 0., -5.58583224e-07,
          -5.58583224e-07, -5.58583224e-07, -1.09841687e-06,
          -1.09841687e-06, -1.09841687e-06, -9.29371026e-07,
          -9.29371026e-07, -9.29371026e-07, 7.78755384e-06,
          7.78755384e-06, 7.78755384e-06, -2.02232354e-06,
          -2.02232354e-06, -2.02232354e-06, -1.94390918e-06,
          -1.94390918e-06, -1.94390918e-06, -1.52541144e-08,
          -1.52541144e-08, -1.52541144e-08, -2.90462534e-08,
          -2.90462534e-08, -2.90462534e-08, 5.82238908e-06,
          5.82238908e-06, 5.82238908e-06, -1.06127777e-06,
          -1.06127777e-06, -1.06127777e-06, -1.49636421e-07,
          -1.49636421e-07, -1.49636421e-07, 3.81075643e-06,
          3.81075643e-06, 3.81075643e-06, 3.78809176e-07, 3.78809176e-07,
          3.78809176e-07, -1.41167106e-06, -1.41167106e-06,
          -1.41167106e-06, -3.1492259e-06, -3.1492259e-06,
          -3.1492259e-06, 2.39494921e-06, 2.39494921e-06, 2.39494921e-06,
          4.65927144e-07, 4.65927144e-07, 4.65927144e-07, 0., 0., 0., 0.,
          0., 0., 0., 0., 0., 0., 0., 0. ]
   uncompressed_sv_total: 29
   uncompressed_support_vectors:
      - [ 0., 0., 0., 0., 0., 0., 0., 0., 0., 0., 0., 0., 0., 0., 0., 0.,
          0., 0., 0., 0., 0., 0., 0., 0., 0., 0., 0., 0., 0., 0., 0., 0.,
          0., 3., 3., 3., 0., 0., 0., 0., 0., 0., 2., 2., 2., 0., 0., 0.,
          0., 0., 0., 0., 0., 0., 0., 0., 0., 0., 0., 0., 0., 0., 0., 0.,
          0., 0., 0., 0., 0., 0., 0., 0., 0., 0., 0., 0., 0., 0., 0., 0.,
          0., 0., 0., 0., 1., 1., 1., 1., 1., 1., 1., 1., 1., 0., 0., 0.,
          0., 0., 0., 0., 0., 0., 0., 0., 0., 0., 0., 0., 0., 0., 0., 0.,
          0., 0., 0., 0., 0., 0., 0., 0., 0., 0., 0., 0., 0., 0., 0., 0.,
          0., 0., 0., 0., 0., 0., 0., 0., 0., 0., 0., 0., 0., 0., 0., 0.,
          0., 0., 0., 0., 0., 0., 6., 6., 6., 9., 9., 9., 2., 2., 2., 0.,
          0., 0., 0., 0., 0., 2., 2., 2., 0., 0., 0., 0., 0., 0., 0., 0.,
          0., 0., 0., 0., 0., 0., 0., 0., 0., 0., 0., 0., 0., 0., 0., 0.,
          0., 0., 0., 0., 0., 0., 0., 0., 0., 0., 0., 0., 3., 3., 3., 1.,
          1., 1., 49., 49., 49., 135., 135., 135., 7., 7., 7., 2., 2.,
          2., 1., 1., 1., 0., 0., 0., 0., 0., 0., 0., 0., 0., 0., 0., 0.,
          0., 0., 0., 0., 0., 0., 0., 0., 0., 0., 0., 0., 0., 0., 0., 0.,
          0., 0., 0., 0., 0., 0., 0., 0., 0., 0., 0., 0., 0., 0., 2., 2.,
          2., 7., 7., 7., 180., 180., 180., 76., 76., 76., 0., 0., 0.,
          2., 2., 2., 0., 0., 0., 0., 0., 0., 0., 0., 0., 0., 0., 0., 0.,
          0., 0., 0., 0., 0., 0., 0., 0., 0., 0., 0., 0., 0., 0., 0., 0.,
          0., 0., 0., 0., 0., 0., 0., 0., 0., 0., 0., 0., 0., 1., 1., 1.,
          1., 1., 1., 139., 139., 139., 139., 139., 139., 2., 2., 2., 1.,
          1., 1., 0., 0., 0., 0., 0., 0., 0., 0., 0., 0., 0., 0., 0., 0.,
          0., 0., 0., 0., 0., 0., 0., 0., 0., 0., 0., 0., 0., 0., 0., 0.,
          0., 0., 0., 0., 0., 0., 0., 0., 0., 2., 2., 2., 0., 0., 0., 0.,
          0., 0., 144., 144., 144., 160., 160., 160., 2., 2., 2., 0., 0.,
          0., 2., 2., 2., 0., 0., 0., 0., 0., 0., 0., 0., 0., 0., 0., 0.,
          0., 0., 0., 0., 0., 0., 0., 0., 0., 0., 0., 0., 0., 0., 0., 0.,
          0., 0., 0., 0., 0., 0., 0., 0., 0., 0., 0., 2., 2., 2., 0., 0.,
          0., 141., 141., 141., 108., 108., 108., 0., 0., 0., 1., 1., 1.,
          0., 0., 0., 0., 0., 0., 0., 0., 0., 0., 0., 0., 0., 0., 0., 4.,
          4., 4., 0., 0., 0., 0., 0., 0., 0., 0., 0., 0., 0., 0., 0., 0.,
          0., 0., 0., 0., 2., 2., 2., 0., 0., 0., 4., 4., 4., 0., 0., 0.,
          148., 148., 148., 90., 90., 90., 0., 0., 0., 0., 0., 0., 1.,
          1., 1., 0., 0., 0., 0., 0., 0., 0., 0., 0., 0., 0., 0., 0., 0.,
          0., 3., 3., 3., 0., 0., 0., 0., 0., 0., 1., 1., 1., 3., 3., 3.,
          1., 1., 1., 0., 0., 0., 3., 3., 3., 0., 0., 0., 21., 21., 21.,
          154., 154., 154., 34., 34., 34., 3., 3., 3., 2., 2., 2., 0.,
          0., 0., 0., 0., 0., 0., 0., 0., 0., 0., 0., 0., 0., 0., 0., 0.,
          0., 0., 0., 0., 0., 0., 0., 3., 3., 3., 0., 0., 0., 0., 0., 0.,
          0., 0., 0., 0., 0., 0., 0., 0., 0., 1., 1., 1., 109., 109.,
          109., 133., 133., 133., 0., 0., 0., 0., 0., 0., 2., 2., 2., 0.,
          0., 0., 0., 0., 0., 0., 0., 0., 0., 0., 0., 0., 0., 0., 3., 3.,
          3., 0., 0., 0., 0., 0., 0., 0., 0., 0., 0., 0., 0., 2., 2., 2.,
          2., 2., 2., 1., 1., 1., 1., 1., 1., 2., 2., 2., 191., 191.,
          191., 90., 90., 90., 0., 0., 0., 0., 0., 0., 1., 1., 1., 1.,
          1., 1., 0., 0., 0., 0., 0., 0., 0., 0., 0., 0., 0., 0., 0., 0.,
          0., 0., 0., 0., 3., 3., 3., 1., 1., 1., 1., 1., 1., 0., 0., 0.,
          0., 0., 0., 0., 0., 0., 0., 0., 0., 96., 96., 96., 155., 155.,
          155., 2., 2., 2., 0., 0., 0., 3., 3., 3., 0., 0., 0., 1., 1.,
          1., 0., 0., 0., 0., 0., 0., 0., 0., 0., 0., 0., 0., 1., 1., 1.,
          0., 0., 0., 0., 0., 0., 0., 0., 0., 0., 0., 0., 0., 0., 0., 5.,
          5., 5., 0., 0., 0., 63., 63., 63., 200., 200., 200., 53., 53.,
          53., 0., 0., 0., 0., 0., 0., 0., 0., 0., 1., 1., 1., 1., 1.,
          1., 0., 0., 0., 0., 0., 0., 0., 0., 0., 0., 0., 0., 0., 0., 0.,
          0., 0., 0., 0., 0., 0., 2., 2., 2., 0., 0., 0., 1., 1., 1., 0.,
          0., 0., 31., 31., 31., 181., 181., 181., 93., 93., 93., 0., 0.,
          0., 0., 0., 0., 0., 0., 0., 2., 2., 2., 0., 0., 0., 0., 0., 0.,
          0., 0., 0., 0., 0., 0., 0., 0., 0., 0., 0., 0., 0., 0., 0., 1.,
          1., 1., 0., 0., 0., 0., 0., 0., 1., 1., 1., 0., 0., 0., 30.,
          30., 30., 203., 203., 203., 137., 137., 137., 0., 0., 0., 1.,
          1., 1., 2., 2., 2., 0., 0., 0., 0., 0., 0., 0., 0., 0., 0., 0.,
          0., 0., 0., 0., 0., 0., 0., 0., 0., 0., 0., 0., 0., 0., 0., 0.,
          0., 0., 0., 0., 0., 0., 2., 2., 2., 0., 0., 0., 33., 33., 33.,
          183., 183., 183., 148., 148., 148., 15., 15., 15., 5., 5., 5.,
          0., 0., 0., 0., 0., 0., 1., 1., 1., 0., 0., 0., 0., 0., 0., 1.,
          1., 1., 0., 0., 0., 0., 0., 0., 0., 0., 0., 0., 0., 0., 0., 0.,
          0., 0., 0., 0., 2., 2., 2., 0., 0., 0., 3., 3., 3., 8., 8., 8.,
          34., 34., 34., 3., 3., 3., 3., 3., 3., 0., 0., 0., 0., 0., 0.,
          0., 0., 0., 1., 1., 1., 1., 1., 1., 0., 0., 0., 1., 1., 1., 0.,
          0., 0., 0., 0., 0., 0., 0., 0., 0., 0., 0., 0., 0., 0., 0., 0.,
          0., 0., 0., 0., 0., 0., 0., 0., 0., 0., 2., 2., 2., 0., 0., 0.,
          0., 0., 0., 0., 0., 0., 0., 0., 0., 0., 0., 0., 0., 0., 0., 0.,
          0., 0., 1., 1., 1., 0., 0., 0., 0., 0., 0., 0., 0., 0., 0., 0.,
          0., 0., 0., 0., 0., 0., 0., 0., 0., 0., 0., 0., 0., 0., 0., 0.,
          3., 3., 3., 1., 1., 1., 0., 0., 0., 2., 2., 2., 0., 0., 0., 0.,
          0., 0., 2., 2., 2., 2., 2., 2., 0., 0., 0., 0., 0., 0., 0., 0.,
          0., 0., 0., 0., 0., 0., 0., 0., 0., 0., 0., 0., 0., 0., 0., 0.,
          0., 0., 0. ]
      - [ 0., 0., 0., 0., 0., 0., 0., 0., 0., 0., 0., 0., 0., 0., 0., 0.,
          0., 0., 0., 0., 0., 0., 0., 0., 1., 1., 1., 0., 0., 0., 3., 3.,
          3., 0., 0., 0., 2., 2., 2., 0., 0., 0., 0., 0., 0., 1., 1., 1.,
          0., 0., 0., 0., 0., 0., 0., 0., 0., 0., 0., 0., 0., 0., 0., 0.,
          0., 0., 0., 0., 0., 0., 0., 0., 0., 0., 0., 0., 0., 0., 0., 0.,
          0., 0., 0., 0., 0., 0., 0., 0., 0., 0., 0., 0., 0., 1., 1., 1.,
          2., 2., 2., 0., 0., 0., 0., 0., 0., 0., 0., 0., 0., 0., 0., 0.,
          0., 0., 0., 0., 0., 0., 0., 0., 0., 0., 0., 0., 0., 0., 0., 0.,
          0., 0., 0., 0., 0., 0., 0., 0., 0., 0., 0., 0., 0., 0., 0., 0.,
          4., 4., 4., 0., 0., 0., 0., 0., 0., 0., 0., 0., 0., 0., 0., 0.,
          0., 0., 0., 0., 0., 2., 2., 2., 0., 0., 0., 0., 0., 0., 0., 0.,
          0., 0., 0., 0., 0., 0., 0., 0., 0., 0., 0., 0., 0., 0., 0., 0.,
          0., 0., 0., 0., 0., 0., 0., 0., 0., 0., 0., 0., 0., 0., 0., 3.,
          3., 3., 0., 0., 0., 0., 0., 0., 0., 0., 0., 64., 64., 64., 32.,
          32., 32., 0., 0., 0., 0., 0., 0., 0., 0., 0., 0., 0., 0., 0.,
          0., 0., 0., 0., 0., 0., 0., 0., 0., 0., 0., 0., 0., 0., 0., 0.,
          0., 0., 0., 0., 0., 0., 0., 0., 0., 0., 3., 3., 3., 1., 1., 1.,
          2., 2., 2., 3., 3., 3., 92., 92., 92., 240., 240., 240., 101.,
          101., 101., 2., 2., 2., 0., 0., 0., 0., 0., 0., 0., 0., 0., 0.,
          0., 0., 0., 0., 0., 0., 0., 0., 0., 0., 0., 0., 0., 0., 0., 0.,
          0., 0., 0., 0., 0., 0., 0., 0., 0., 0., 0., 0., 0., 0., 0., 0.,
          0., 0., 0., 47., 47., 47., 227., 227., 227., 241., 241., 241.,
          50., 50., 50., 0., 0., 0., 0., 0., 0., 0., 0., 0., 0., 0., 0.,
          0., 0., 0., 0., 0., 0., 0., 0., 0., 0., 0., 0., 0., 0., 0., 0.,
          0., 0., 0., 0., 0., 0., 0., 0., 0., 0., 0., 1., 1., 1., 0., 0.,
          0., 31., 31., 31., 189., 189., 189., 254., 254., 254., 115.,
          115., 115., 0., 0., 0., 3., 3., 3., 0., 0., 0., 0., 0., 0., 0.,
          0., 0., 0., 0., 0., 0., 0., 0., 0., 0., 0., 0., 0., 0., 0., 0.,
          0., 0., 0., 0., 0., 0., 0., 0., 0., 0., 0., 0., 0., 0., 0., 0.,
          19., 19., 19., 176., 176., 176., 255., 255., 255., 217., 217.,
          217., 16., 16., 16., 2., 2., 2., 0., 0., 0., 0., 0., 0., 0.,
          0., 0., 0., 0., 0., 0., 0., 0., 1., 1., 1., 0., 0., 0., 0., 0.,
          0., 0., 0., 0., 1., 1., 1., 1., 1., 1., 0., 0., 0., 2., 2., 2.,
          0., 0., 0., 155., 155., 155., 255., 255., 255., 255., 255.,
          255., 153., 153., 153., 0., 0., 0., 0., 0., 0., 0., 0., 0., 0.,
          0., 0., 0., 0., 0., 0., 0., 0., 0., 0., 0., 0., 0., 0., 0., 0.,
          0., 3., 3., 3., 0., 0., 0., 1., 1., 1., 0., 0., 0., 0., 0., 0.,
          14., 14., 14., 156., 156., 156., 241., 241., 241., 224., 224.,
          224., 255., 255., 255., 123., 123., 123., 0., 0., 0., 4., 4.,
          4., 0., 0., 0., 0., 0., 0., 0., 0., 0., 0., 0., 0., 0., 0., 0.,
          0., 0., 0., 3., 3., 3., 0., 0., 0., 0., 0., 0., 1., 1., 1., 0.,
          0., 0., 47., 47., 47., 180., 180., 180., 227., 227., 227., 88.,
          88., 88., 173., 173., 173., 225., 225., 225., 25., 25., 25.,
          3., 3., 3., 0., 0., 0., 0., 0., 0., 0., 0., 0., 0., 0., 0., 0.,
          0., 0., 0., 0., 0., 0., 0., 0., 1., 1., 1., 0., 0., 0., 0., 0.,
          0., 63., 63., 63., 171., 171., 171., 234., 234., 234., 206.,
          206., 206., 57., 57., 57., 16., 16., 16., 225., 225., 225.,
          158., 158., 158., 4., 4., 4., 3., 3., 3., 0., 0., 0., 5., 5.,
          5., 0., 0., 0., 0., 0., 0., 0., 0., 0., 0., 0., 0., 0., 0., 0.,
          0., 0., 0., 3., 3., 3., 29., 29., 29., 192., 192., 192., 220.,
          220., 220., 111., 111., 111., 20., 20., 20., 0., 0., 0., 111.,
          111., 111., 255., 255., 255., 91., 91., 91., 1., 1., 1., 0.,
          0., 0., 0., 0., 0., 0., 0., 0., 0., 0., 0., 0., 0., 0., 0., 0.,
          0., 0., 0., 0., 3., 3., 3., 0., 0., 0., 0., 0., 0., 0., 0., 0.,
          38., 38., 38., 16., 16., 16., 0., 0., 0., 0., 0., 0., 6., 6.,
          6., 203., 203., 203., 206., 206., 206., 24., 24., 24., 0., 0.,
          0., 0., 0., 0., 1., 1., 1., 0., 0., 0., 0., 0., 0., 0., 0., 0.,
          0., 0., 0., 0., 0., 0., 0., 0., 0., 5., 5., 5., 0., 0., 0., 0.,
          0., 0., 0., 0., 0., 0., 0., 0., 0., 0., 0., 1., 1., 1., 37.,
          37., 37., 228., 228., 228., 193., 193., 193., 0., 0., 0., 1.,
          1., 1., 0., 0., 0., 2., 2., 2., 0., 0., 0., 0., 0., 0., 0., 0.,
          0., 0., 0., 0., 0., 0., 0., 1., 1., 1., 0., 0., 0., 0., 0., 0.,
          0., 0., 0., 1., 1., 1., 0., 0., 0., 1., 1., 1., 0., 0., 0.,
          63., 63., 63., 245., 245., 245., 191., 191., 191., 0., 0., 0.,
          0., 0., 0., 0., 0., 0., 0., 0., 0., 1., 1., 1., 0., 0., 0., 0.,
          0., 0., 0., 0., 0., 0., 0., 0., 0., 0., 0., 0., 0., 0., 0., 0.,
          0., 0., 0., 0., 0., 0., 0., 0., 0., 0., 0., 0., 0., 0., 0., 0.,
          84., 84., 84., 255., 255., 255., 161., 161., 161., 2., 2., 2.,
          0., 0., 0., 2., 2., 2., 0., 0., 0., 0., 0., 0., 0., 0., 0., 0.,
          0., 0., 0., 0., 0., 0., 0., 0., 0., 0., 0., 0., 0., 0., 0., 0.,
          0., 0., 0., 0., 0., 0., 0., 0., 0., 0., 0., 0., 0., 0., 0., 0.,
          24., 24., 24., 180., 180., 180., 117., 117., 117., 2., 2., 2.,
          1., 1., 1., 0., 0., 0., 0., 0., 0., 0., 0., 0., 0., 0., 0., 0.,
          0., 0., 0., 0., 0., 0., 0., 0., 0., 0., 0., 0., 0., 0., 0., 0.,
          0., 0., 0., 0., 0., 0., 0., 0., 0., 0., 0., 0., 0., 0., 0., 0.,
          0., 0., 0., 4., 4., 4., 0., 0., 0., 0., 0., 0., 1., 1., 1., 1.,
          1., 1., 0., 0., 0., 1., 1., 1., 0., 0., 0., 0., 0., 0., 0., 0.,
          0., 0., 0., 0., 0., 0., 0., 0., 0., 0., 0., 0., 0., 0., 0., 0.,
          0., 0., 0., 0., 0., 0., 0., 0., 0., 0., 0., 0., 2., 2., 2., 0.,
          0., 0., 0., 0., 0., 2., 2., 2., 0., 0., 0., 0., 0., 0., 1., 1.,
          1., 0., 0., 0., 0., 0., 0., 0., 0., 0., 0., 0., 0., 0., 0., 0. ]
      - [ 0., 0., 0., 0., 0., 0., 0., 0., 0., 0., 0., 0., 0., 0., 0., 0.,
          0., 0., 0., 0., 0., 0., 0., 0., 0., 0., 0., 2., 2., 2., 0., 0.,
          0., 0., 0., 0., 2., 2., 2., 1., 1., 1., 0., 0., 0., 3., 3., 3.,
          0., 0., 0., 0., 0., 0., 0., 0., 0., 0., 0., 0., 0., 0., 0., 0.,
          0., 0., 0., 0., 0., 0., 0., 0., 0., 0., 0., 0., 0., 0., 0., 0.,
          0., 0., 0., 0., 0., 0., 0., 0., 0., 0., 0., 0., 0., 1., 1., 1.,
          0., 0., 0., 0., 0., 0., 2., 2., 2., 0., 0., 0., 0., 0., 0., 0.,
          0., 0., 0., 0., 0., 0., 0., 0., 0., 0., 0., 0., 0., 0., 0., 0.,
          0., 0., 0., 0., 0., 0., 0., 0., 0., 0., 0., 0., 0., 0., 0., 0.,
          3., 3., 3., 0., 0., 0., 12., 12., 12., 36., 36., 36., 8., 8.,
          8., 2., 2., 2., 1., 1., 1., 0., 0., 0., 0., 0., 0., 0., 0., 0.,
          0., 0., 0., 0., 0., 0., 0., 0., 0., 0., 0., 0., 0., 0., 0., 0.,
          0., 0., 0., 0., 0., 0., 0., 0., 0., 0., 0., 0., 0., 0., 0., 0.,
          0., 0., 0., 0., 140., 140., 140., 253., 253., 253., 180., 180.,
          180., 85., 85., 85., 0., 0., 0., 2., 2., 2., 0., 0., 0., 0.,
          0., 0., 0., 0., 0., 0., 0., 0., 0., 0., 0., 0., 0., 0., 0., 0.,
          0., 0., 0., 0., 0., 0., 0., 0., 0., 0., 0., 0., 0., 0., 0., 0.,
          2., 2., 2., 21., 21., 21., 230., 230., 230., 254., 254., 254.,
          255., 255., 255., 226., 226., 226., 41., 41., 41., 0., 0., 0.,
          0., 0., 0., 0., 0., 0., 0., 0., 0., 0., 0., 0., 0., 0., 0., 0.,
          0., 0., 0., 0., 0., 0., 0., 0., 0., 0., 0., 0., 0., 0., 0., 0.,
          0., 0., 0., 0., 0., 0., 0., 94., 94., 94., 255., 255., 255.,
          250., 250., 250., 255., 255., 255., 191., 191., 191., 20., 20.,
          20., 0., 0., 0., 0., 0., 0., 0., 0., 0., 0., 0., 0., 0., 0.,
          0., 0., 0., 0., 0., 0., 0., 0., 0., 0., 0., 0., 0., 0., 0., 0.,
          0., 0., 0., 0., 0., 0., 0., 0., 0., 3., 3., 3., 132., 132.,
          132., 254., 254., 254., 254., 254., 254., 251., 251., 251.,
          99., 99., 99., 5., 5., 5., 0., 0., 0., 0., 0., 0., 0., 0., 0.,
          0., 0., 0., 0., 0., 0., 0., 0., 0., 0., 0., 0., 0., 0., 0., 0.,
          0., 0., 0., 0., 0., 0., 0., 0., 0., 0., 0., 0., 0., 0., 40.,
          40., 40., 205., 205., 205., 255., 255., 255., 254., 254., 254.,
          241., 241., 241., 85., 85., 85., 0., 0., 0., 1., 1., 1., 0.,
          0., 0., 0., 0., 0., 0., 0., 0., 0., 0., 0., 0., 0., 0., 3., 3.,
          3., 0., 0., 0., 0., 0., 0., 1., 1., 1., 0., 0., 0., 1., 1., 1.,
          9., 9., 9., 176., 176., 176., 255., 255., 255., 252., 252.,
          252., 250., 250., 250., 255., 255., 255., 131., 131., 131., 1.,
          1., 1., 0., 0., 0., 2., 2., 2., 0., 0., 0., 1., 1., 1., 0., 0.,
          0., 0., 0., 0., 0., 0., 0., 2., 2., 2., 0., 0., 0., 2., 2., 2.,
          0., 0., 0., 0., 0., 0., 13., 13., 13., 179., 179., 179., 255.,
          255., 255., 254., 254., 254., 255., 255., 255., 250., 250.,
          250., 118., 118., 118., 4., 4., 4., 3., 3., 3., 0., 0., 0., 0.,
          0., 0., 7., 7., 7., 0., 0., 0., 0., 0., 0., 2., 2., 2., 0., 0.,
          0., 0., 0., 0., 1., 1., 1., 0., 0., 0., 6., 6., 6., 6., 6., 6.,
          179., 179., 179., 255., 255., 255., 248., 248., 248., 254.,
          254., 254., 247., 247., 247., 180., 180., 180., 104., 104.,
          104., 66., 66., 66., 0., 0., 0., 5., 5., 5., 24., 24., 24., 7.,
          7., 7., 0., 0., 0., 2., 2., 2., 0., 0., 0., 0., 0., 0., 1., 1.,
          1., 1., 1., 1., 0., 0., 0., 38., 38., 38., 234., 234., 234.,
          254., 254., 254., 252., 252., 252., 249., 249., 249., 114.,
          114., 114., 6., 6., 6., 19., 19., 19., 9., 9., 9., 0., 0., 0.,
          0., 0., 0., 8., 8., 8., 0., 0., 0., 0., 0., 0., 0., 0., 0., 3.,
          3., 3., 0., 0., 0., 0., 0., 0., 3., 3., 3., 0., 0., 0., 148.,
          148., 148., 255., 255., 255., 249., 249., 249., 251., 251.,
          251., 232., 232., 232., 24., 24., 24., 0., 0., 0., 1., 1., 1.,
          0., 0., 0., 1., 1., 1., 1., 1., 1., 0., 0., 0., 0., 0., 0., 2.,
          2., 2., 0., 0., 0., 0., 0., 0., 0., 0., 0., 0., 0., 0., 1., 1.,
          1., 28., 28., 28., 228., 228., 228., 255., 255., 255., 254.,
          254., 254., 255., 255., 255., 231., 231., 231., 21., 21., 21.,
          1., 1., 1., 0., 0., 0., 1., 1., 1., 0., 0., 0., 2., 2., 2., 0.,
          0., 0., 4., 4., 4., 0., 0., 0., 0., 0., 0., 0., 0., 0., 4., 4.,
          4., 1., 1., 1., 0., 0., 0., 68., 68., 68., 236., 236., 236.,
          252., 252., 252., 251., 251., 251., 251., 251., 251., 164.,
          164., 164., 9., 9., 9., 1., 1., 1., 0., 0., 0., 1., 1., 1., 0.,
          0., 0., 0., 0., 0., 0., 0., 0., 0., 0., 0., 1., 1., 1., 1., 1.,
          1., 0., 0., 0., 0., 0., 0., 0., 0., 0., 1., 1., 1., 102., 102.,
          102., 255., 255., 255., 254., 254., 254., 254., 254., 254.,
          218., 218., 218., 28., 28., 28., 0., 0., 0., 1., 1., 1., 0.,
          0., 0., 0., 0., 0., 1., 1., 1., 0., 0., 0., 2., 2., 2., 0., 0.,
          0., 0., 0., 0., 1., 1., 1., 0., 0., 0., 0., 0., 0., 0., 0., 0.,
          0., 0., 0., 25., 25., 25., 170., 170., 170., 255., 255., 255.,
          214., 214., 214., 89., 89., 89., 0., 0., 0., 0., 0., 0., 2.,
          2., 2., 0., 0., 0., 0., 0., 0., 0., 0., 0., 0., 0., 0., 0., 0.,
          0., 0., 0., 0., 1., 1., 1., 1., 1., 1., 0., 0., 0., 1., 1., 1.,
          0., 0., 0., 4., 4., 4., 0., 0., 0., 10., 10., 10., 35., 35.,
          35., 20., 20., 20., 0., 0., 0., 0., 0., 0., 3., 3., 3., 0., 0.,
          0., 2., 2., 2., 0., 0., 0., 0., 0., 0., 0., 0., 0., 0., 0., 0.,
          0., 0., 0., 1., 1., 1., 0., 0., 0., 0., 0., 0., 3., 3., 3., 0.,
          0., 0., 0., 0., 0., 5., 5., 5., 1., 1., 1., 2., 2., 2., 0., 0.,
          0., 0., 0., 0., 3., 3., 3., 0., 0., 0., 0., 0., 0., 2., 2., 2.,
          0., 0., 0., 0., 0., 0., 0., 0., 0., 0., 0., 0., 0., 0., 0., 0.,
          0., 0., 0., 0., 0., 2., 2., 2., 1., 1., 1., 3., 3., 3., 0., 0.,
          0., 0., 0., 0., 0., 0., 0., 0., 0., 0., 0., 0., 0., 0., 0., 0.,
          0., 0., 0., 2., 2., 2., 1., 1., 1., 0., 0., 0., 1., 1., 1., 0.,
          0., 0., 0., 0., 0., 0., 0., 0., 0., 0., 0. ]
      - [ 0., 0., 0., 0., 0., 0., 0., 0., 0., 0., 0., 0., 0., 0., 0., 0.,
          0., 0., 0., 0., 0., 0., 0., 0., 3., 3., 3., 0., 0., 0., 0., 0.,
          0., 0., 0., 0., 2., 2., 2., 0., 0., 0., 1., 1., 1., 0., 0., 0.,
          0., 0., 0., 0., 0., 0., 0., 0., 0., 0., 0., 0., 0., 0., 0., 0.,
          0., 0., 0., 0., 0., 0., 0., 0., 0., 0., 0., 0., 0., 0., 0., 0.,
          0., 0., 0., 0., 0., 0., 0., 3., 3., 3., 0., 0., 0., 0., 0., 0.,
          0., 0., 0., 1., 1., 1., 1., 1., 1., 0., 0., 0., 0., 0., 0., 0.,
          0., 0., 0., 0., 0., 0., 0., 0., 0., 0., 0., 0., 0., 0., 0., 0.,
          0., 0., 0., 0., 0., 0., 0., 0., 0., 0., 0., 0., 0., 0., 0., 0.,
          6., 6., 6., 0., 0., 0., 1., 1., 1., 31., 31., 31., 36., 36.,
          36., 6., 6., 6., 2., 2., 2., 0., 0., 0., 0., 0., 0., 0., 0.,
          0., 0., 0., 0., 0., 0., 0., 0., 0., 0., 0., 0., 0., 0., 0., 0.,
          0., 0., 0., 0., 0., 0., 0., 0., 0., 0., 0., 0., 0., 0., 0., 0.,
          0., 0., 0., 0., 0., 102., 102., 102., 247., 247., 247., 255.,
          255., 255., 109., 109., 109., 1., 1., 1., 0., 0., 0., 0., 0.,
          0., 0., 0., 0., 0., 0., 0., 0., 0., 0., 0., 0., 0., 0., 0., 0.,
          0., 0., 0., 0., 0., 0., 0., 0., 0., 0., 0., 0., 0., 0., 0., 0.,
          0., 0., 2., 2., 2., 26., 26., 26., 233., 233., 233., 255.,
          255., 255., 255., 255., 255., 200., 200., 200., 48., 48., 48.,
          0., 0., 0., 0., 0., 0., 0., 0., 0., 0., 0., 0., 0., 0., 0., 0.,
          0., 0., 0., 0., 0., 0., 0., 0., 0., 0., 0., 0., 0., 0., 0., 0.,
          0., 0., 0., 0., 0., 0., 0., 0., 0., 0., 43., 43., 43., 250.,
          250., 250., 253., 253., 253., 252., 252., 252., 249., 249.,
          249., 124., 124., 124., 0., 0., 0., 0., 0., 0., 0., 0., 0., 0.,
          0., 0., 0., 0., 0., 0., 0., 0., 0., 0., 0., 0., 0., 0., 0., 0.,
          0., 0., 0., 0., 0., 0., 0., 0., 0., 0., 0., 0., 0., 1., 1., 1.,
          127., 127., 127., 253., 253., 253., 252., 252., 252., 255.,
          255., 255., 212., 212., 212., 29., 29., 29., 0., 0., 0., 0.,
          0., 0., 0., 0., 0., 0., 0., 0., 0., 0., 0., 0., 0., 0., 0., 0.,
          0., 0., 0., 0., 0., 0., 0., 0., 0., 0., 0., 0., 0., 0., 0., 0.,
          0., 0., 0., 40., 40., 40., 215., 215., 215., 255., 255., 255.,
          252., 252., 252., 252., 252., 252., 141., 141., 141., 0., 0.,
          0., 0., 0., 0., 0., 0., 0., 0., 0., 0., 0., 0., 0., 0., 0., 0.,
          0., 0., 0., 0., 0., 0., 2., 2., 2., 1., 1., 1., 0., 0., 0., 2.,
          2., 2., 0., 0., 0., 0., 0., 0., 83., 83., 83., 248., 248.,
          248., 255., 255., 255., 251., 251., 251., 255., 255., 255.,
          124., 124., 124., 0., 0., 0., 1., 1., 1., 0., 0., 0., 0., 0.,
          0., 0., 0., 0., 0., 0., 0., 3., 3., 3., 0., 0., 0., 0., 0., 0.,
          1., 1., 1., 0., 0., 0., 0., 0., 0., 1., 1., 1., 0., 0., 0.,
          137., 137., 137., 255., 255., 255., 249., 249., 249., 255.,
          255., 255., 240., 240., 240., 66., 66., 66., 4., 4., 4., 0.,
          0., 0., 0., 0., 0., 0., 0., 0., 0., 0., 0., 0., 0., 0., 0., 0.,
          0., 0., 0., 0., 0., 0., 0., 0., 0., 0., 5., 5., 5., 1., 1., 1.,
          3., 3., 3., 70., 70., 70., 190., 190., 190., 249., 249., 249.,
          254., 254., 254., 255., 255., 255., 240., 240., 240., 63., 63.,
          63., 0., 0., 0., 1., 1., 1., 0., 0., 0., 0., 0., 0., 0., 0.,
          0., 0., 0., 0., 1., 1., 1., 2., 2., 2., 0., 0., 0., 2., 2., 2.,
          0., 0., 0., 0., 0., 0., 0., 0., 0., 182., 182., 182., 252.,
          252., 252., 255., 255., 255., 251., 251., 251., 252., 252.,
          252., 251., 251., 251., 86., 86., 86., 0., 0., 0., 2., 2., 2.,
          0., 0., 0., 0., 0., 0., 0., 0., 0., 0., 0., 0., 0., 0., 0., 2.,
          2., 2., 0., 0., 0., 0., 0., 0., 1., 1., 1., 1., 1., 1., 3., 3.,
          3., 53., 53., 53., 159., 159., 159., 249., 249., 249., 252.,
          252., 252., 233., 233., 233., 200., 200., 200., 65., 65., 65.,
          0., 0., 0., 0., 0., 0., 0., 0., 0., 0., 0., 0., 0., 0., 0., 0.,
          0., 0., 2., 2., 2., 0., 0., 0., 2., 2., 2., 0., 0., 0., 1., 1.,
          1., 2., 2., 2., 1., 1., 1., 130., 130., 130., 210., 210., 210.,
          250., 250., 250., 235., 235., 235., 74., 74., 74., 2., 2., 2.,
          0., 0., 0., 1., 1., 1., 0., 0., 0., 0., 0., 0., 0., 0., 0., 0.,
          0., 0., 0., 0., 0., 0., 0., 0., 0., 0., 0., 0., 0., 0., 5., 5.,
          5., 0., 0., 0., 0., 0., 0., 120., 120., 120., 253., 253., 253.,
          255., 255., 255., 252., 252., 252., 250., 250., 250., 130.,
          130., 130., 0., 0., 0., 0., 0., 0., 0., 0., 0., 0., 0., 0., 0.,
          0., 0., 0., 0., 0., 0., 0., 0., 0., 0., 0., 0., 0., 0., 0., 0.,
          0., 2., 2., 2., 0., 0., 0., 0., 0., 0., 0., 0., 0., 149., 149.,
          149., 255., 255., 255., 249., 249., 249., 255., 255., 255.,
          229., 229., 229., 62., 62., 62., 0., 0., 0., 0., 0., 0., 0.,
          0., 0., 0., 0., 0., 0., 0., 0., 0., 0., 0., 0., 0., 0., 0., 0.,
          0., 1., 1., 1., 0., 0., 0., 0., 0., 0., 1., 1., 1., 0., 0., 0.,
          0., 0., 0., 34., 34., 34., 172., 172., 172., 255., 255., 255.,
          249., 249., 249., 102., 102., 102., 1., 1., 1., 0., 0., 0., 0.,
          0., 0., 1., 1., 1., 0., 0., 0., 0., 0., 0., 0., 0., 0., 0., 0.,
          0., 0., 0., 0., 0., 0., 0., 0., 0., 0., 0., 0., 0., 0., 0., 0.,
          0., 0., 0., 3., 3., 3., 0., 0., 0., 8., 8., 8., 34., 34., 34.,
          33., 33., 33., 0., 0., 0., 0., 0., 0., 3., 3., 3., 0., 0., 0.,
          1., 1., 1., 1., 1., 1., 0., 0., 0., 0., 0., 0., 0., 0., 0., 0.,
          0., 0., 0., 0., 0., 2., 2., 2., 0., 0., 0., 0., 0., 0., 1., 1.,
          1., 0., 0., 0., 4., 4., 4., 1., 1., 1., 2., 2., 2., 0., 0., 0.,
          0., 0., 0., 2., 2., 2., 0., 0., 0., 0., 0., 0., 0., 0., 0., 0.,
          0., 0., 0., 0., 0., 0., 0., 0., 0., 0., 0., 0., 0., 0., 0., 0.,
          0., 0., 0., 0., 1., 1., 1., 0., 0., 0., 5., 5., 5., 0., 0., 0.,
          0., 0., 0., 1., 1., 1., 0., 0., 0., 0., 0., 0., 1., 1., 1., 0.,
          0., 0., 1., 1., 1., 4., 4., 4., 0., 0., 0., 1., 1., 1., 0., 0.,
          0., 0., 0., 0., 0., 0., 0., 0., 0., 0. ]
      - [ 0., 0., 0., 0., 0., 0., 0., 0., 0., 0., 0., 0., 0., 0., 0., 0.,
          0., 0., 0., 0., 0., 0., 0., 0., 1., 1., 1., 0., 0., 0., 3., 3.,
          3., 0., 0., 0., 0., 0., 0., 2., 2., 2., 0., 0., 0., 1., 1., 1.,
          0., 0., 0., 0., 0., 0., 0., 0., 0., 0., 0., 0., 0., 0., 0., 0.,
          0., 0., 0., 0., 0., 0., 0., 0., 0., 0., 0., 0., 0., 0., 0., 0.,
          0., 0., 0., 0., 0., 0., 0., 0., 0., 0., 0., 0., 0., 4., 4., 4.,
          0., 0., 0., 0., 0., 0., 0., 0., 0., 1., 1., 1., 0., 0., 0., 0.,
          0., 0., 0., 0., 0., 0., 0., 0., 0., 0., 0., 0., 0., 0., 0., 0.,
          0., 0., 0., 0., 0., 0., 0., 0., 0., 0., 0., 0., 0., 0., 0., 0.,
          4., 4., 4., 0., 0., 0., 14., 14., 14., 37., 37., 37., 17., 17.,
          17., 0., 0., 0., 0., 0., 0., 0., 0., 0., 0., 0., 0., 0., 0.,
          0., 0., 0., 0., 0., 0., 0., 0., 0., 0., 0., 0., 0., 0., 0., 0.,
          0., 0., 0., 0., 0., 0., 0., 0., 0., 0., 0., 0., 0., 0., 0., 0.,
          0., 0., 39., 39., 39., 192., 192., 192., 255., 255., 255.,
          126., 126., 126., 2., 2., 2., 0., 0., 0., 1., 1., 1., 0., 0.,
          0., 0., 0., 0., 0., 0., 0., 0., 0., 0., 0., 0., 0., 0., 0., 0.,
          0., 0., 0., 0., 0., 0., 0., 0., 0., 0., 0., 0., 0., 0., 0., 0.,
          0., 0., 1., 1., 1., 95., 95., 95., 253., 253., 253., 255.,
          255., 255., 189., 189., 189., 0., 0., 0., 2., 2., 2., 0., 0.,
          0., 0., 0., 0., 0., 0., 0., 0., 0., 0., 0., 0., 0., 0., 0., 0.,
          0., 0., 0., 0., 0., 0., 0., 0., 0., 0., 0., 0., 0., 0., 0., 0.,
          0., 0., 0., 0., 0., 1., 1., 1., 152., 152., 152., 253., 253.,
          253., 255., 255., 255., 223., 223., 223., 9., 9., 9., 0., 0.,
          0., 4., 4., 4., 0., 0., 0., 0., 0., 0., 0., 0., 0., 0., 0., 0.,
          0., 0., 0., 0., 0., 0., 0., 0., 0., 0., 0., 0., 0., 0., 0., 0.,
          0., 0., 0., 0., 0., 0., 0., 0., 14., 14., 14., 196., 196.,
          196., 255., 255., 255., 255., 255., 255., 200., 200., 200., 4.,
          4., 4., 0., 0., 0., 0., 0., 0., 0., 0., 0., 0., 0., 0., 0., 0.,
          0., 0., 0., 0., 0., 0., 0., 0., 0., 0., 0., 0., 0., 0., 0., 0.,
          0., 0., 0., 0., 0., 0., 0., 0., 0., 0., 0., 0., 82., 82., 82.,
          245., 245., 245., 255., 255., 255., 253., 253., 253., 166.,
          166., 166., 0., 0., 0., 1., 1., 1., 0., 0., 0., 0., 0., 0., 0.,
          0., 0., 0., 0., 0., 0., 0., 0., 1., 1., 1., 1., 1., 1., 0., 0.,
          0., 0., 0., 0., 0., 0., 0., 3., 3., 3., 0., 0., 0., 0., 0., 0.,
          96., 96., 96., 250., 250., 250., 254., 254., 254., 253., 253.,
          253., 164., 164., 164., 1., 1., 1., 0., 0., 0., 0., 0., 0., 0.,
          0., 0., 0., 0., 0., 0., 0., 0., 0., 0., 0., 0., 0., 0., 2., 2.,
          2., 1., 1., 1., 0., 0., 0., 5., 5., 5., 0., 0., 0., 0., 0., 0.,
          1., 1., 1., 136., 136., 136., 255., 255., 255., 254., 254.,
          254., 255., 255., 255., 119., 119., 119., 0., 0., 0., 0., 0.,
          0., 2., 2., 2., 0., 0., 0., 0., 0., 0., 0., 0., 0., 0., 0., 0.,
          1., 1., 1., 0., 0., 0., 1., 1., 1., 0., 0., 0., 0., 0., 0., 3.,
          3., 3., 3., 3., 3., 29., 29., 29., 209., 209., 209., 255.,
          255., 255., 254., 254., 254., 238., 238., 238., 47., 47., 47.,
          0., 0., 0., 7., 7., 7., 0., 0., 0., 0., 0., 0., 0., 0., 0., 0.,
          0., 0., 0., 0., 0., 0., 0., 0., 0., 0., 0., 0., 0., 0., 1., 1.,
          1., 0., 0., 0., 1., 1., 1., 0., 0., 0., 74., 74., 74., 255.,
          255., 255., 249., 249., 249., 255., 255., 255., 248., 248.,
          248., 116., 116., 116., 0., 0., 0., 0., 0., 0., 0., 0., 0., 0.,
          0., 0., 0., 0., 0., 0., 0., 0., 0., 0., 0., 0., 0., 0., 0., 0.,
          0., 0., 0., 0., 1., 1., 1., 4., 4., 4., 0., 0., 0., 0., 0., 0.,
          69., 69., 69., 254., 254., 254., 252., 252., 252., 253., 253.,
          253., 255., 255., 255., 146., 146., 146., 2., 2., 2., 0., 0.,
          0., 0., 0., 0., 0., 0., 0., 0., 0., 0., 0., 0., 0., 0., 0., 0.,
          1., 1., 1., 0., 0., 0., 0., 0., 0., 0., 0., 0., 0., 0., 0., 0.,
          0., 0., 2., 2., 2., 82., 82., 82., 255., 255., 255., 252.,
          252., 252., 255., 255., 255., 241., 241., 241., 52., 52., 52.,
          0., 0., 0., 0., 0., 0., 3., 3., 3., 0., 0., 0., 0., 0., 0., 0.,
          0., 0., 0., 0., 0., 0., 0., 0., 3., 3., 3., 0., 0., 0., 0., 0.,
          0., 3., 3., 3., 0., 0., 0., 16., 16., 16., 177., 177., 177.,
          252., 252., 252., 255., 255., 255., 255., 255., 255., 151.,
          151., 151., 2., 2., 2., 4., 4., 4., 0., 0., 0., 0., 0., 0., 0.,
          0., 0., 0., 0., 0., 0., 0., 0., 0., 0., 0., 0., 0., 0., 0., 0.,
          0., 1., 1., 1., 0., 0., 0., 0., 0., 0., 0., 0., 0., 76., 76.,
          76., 249., 249., 249., 255., 255., 255., 252., 252., 252.,
          207., 207., 207., 22., 22., 22., 0., 0., 0., 2., 2., 2., 0.,
          0., 0., 1., 1., 1., 0., 0., 0., 0., 0., 0., 0., 0., 0., 0., 0.,
          0., 0., 0., 0., 0., 0., 0., 1., 1., 1., 0., 0., 0., 1., 1., 1.,
          0., 0., 0., 57., 57., 57., 193., 193., 193., 213., 213., 213.,
          225., 225., 225., 102., 102., 102., 1., 1., 1., 0., 0., 0., 0.,
          0., 0., 1., 1., 1., 0., 0., 0., 0., 0., 0., 0., 0., 0., 0., 0.,
          0., 0., 0., 0., 1., 1., 1., 0., 0., 0., 1., 1., 1., 0., 0., 0.,
          0., 0., 0., 1., 1., 1., 2., 2., 2., 17., 17., 17., 19., 19.,
          19., 26., 26., 26., 2., 2., 2., 0., 0., 0., 3., 3., 3., 0., 0.,
          0., 2., 2., 2., 0., 0., 0., 0., 0., 0., 0., 0., 0., 0., 0., 0.,
          0., 0., 0., 1., 1., 1., 1., 1., 1., 0., 0., 0., 1., 1., 1., 0.,
          0., 0., 0., 0., 0., 3., 3., 3., 1., 1., 1., 1., 1., 1., 1., 1.,
          1., 1., 1., 1., 2., 2., 2., 0., 0., 0., 0., 0., 0., 2., 2., 2.,
          0., 0., 0., 0., 0., 0., 0., 0., 0., 0., 0., 0., 0., 0., 0., 0.,
          0., 0., 4., 4., 4., 0., 0., 0., 0., 0., 0., 3., 3., 3., 0., 0.,
          0., 0., 0., 0., 0., 0., 0., 0., 0., 0., 0., 0., 0., 0., 0., 0.,
          0., 0., 0., 2., 2., 2., 2., 2., 2., 0., 0., 0., 1., 1., 1., 0.,
          0., 0., 0., 0., 0., 0., 0., 0., 0., 0., 0. ]
      - [ 0., 0., 0., 0., 0., 0., 0., 0., 0., 0., 0., 0., 0., 0., 0., 0.,
          0., 0., 0., 0., 0., 0., 0., 0., 0., 0., 0., 2., 2., 2., 2., 2.,
          2., 0., 0., 0., 0., 0., 0., 1., 1., 1., 0., 0., 0., 1., 1., 1.,
          1., 1., 1., 0., 0., 0., 3., 3., 3., 0., 0., 0., 0., 0., 0., 0.,
          0., 0., 0., 0., 0., 0., 0., 0., 0., 0., 0., 0., 0., 0., 0., 0.,
          0., 0., 0., 0., 3., 3., 3., 0., 0., 0., 0., 0., 0., 1., 1., 1.,
          0., 0., 0., 0., 0., 0., 0., 0., 0., 0., 0., 0., 0., 0., 0., 1.,
          1., 1., 0., 0., 0., 3., 3., 3., 0., 0., 0., 0., 0., 0., 0., 0.,
          0., 0., 0., 0., 0., 0., 0., 0., 0., 0., 0., 0., 0., 0., 0., 0.,
          0., 0., 0., 5., 5., 5., 0., 0., 0., 0., 0., 0., 1., 1., 1., 1.,
          1., 1., 0., 0., 0., 0., 0., 0., 0., 0., 0., 0., 0., 0., 2., 2.,
          2., 0., 0., 0., 0., 0., 0., 0., 0., 0., 0., 0., 0., 0., 0., 0.,
          0., 0., 0., 0., 0., 0., 0., 0., 0., 0., 0., 0., 0., 0., 0., 0.,
          0., 0., 2., 2., 2., 4., 4., 4., 2., 2., 2., 0., 0., 0., 1., 1.,
          1., 0., 0., 0., 2., 2., 2., 0., 0., 0., 0., 0., 0., 3., 3., 3.,
          0., 0., 0., 0., 0., 0., 0., 0., 0., 0., 0., 0., 0., 0., 0., 0.,
          0., 0., 0., 0., 0., 0., 0., 0., 1., 1., 1., 0., 0., 0., 0., 0.,
          0., 0., 0., 0., 0., 0., 0., 84., 84., 84., 166., 166., 166.,
          148., 148., 148., 37., 37., 37., 0., 0., 0., 2., 2., 2., 0.,
          0., 0., 0., 0., 0., 0., 0., 0., 0., 0., 0., 0., 0., 0., 0., 0.,
          0., 0., 0., 0., 0., 0., 0., 0., 0., 0., 0., 0., 0., 2., 2., 2.,
          0., 0., 0., 1., 1., 1., 32., 32., 32., 195., 195., 195., 255.,
          255., 255., 169., 169., 169., 49., 49., 49., 0., 0., 0., 0.,
          0., 0., 0., 0., 0., 0., 0., 0., 0., 0., 0., 0., 0., 0., 0., 0.,
          0., 0., 0., 0., 0., 0., 0., 0., 0., 0., 0., 0., 0., 3., 3., 3.,
          0., 0., 0., 0., 0., 0., 32., 32., 32., 188., 188., 188., 255.,
          255., 255., 227., 227., 227., 16., 16., 16., 0., 0., 0., 2.,
          2., 2., 0., 0., 0., 2., 2., 2., 0., 0., 0., 0., 0., 0., 0., 0.,
          0., 0., 0., 0., 0., 0., 0., 0., 0., 0., 0., 0., 0., 0., 0., 0.,
          0., 0., 0., 1., 1., 1., 87., 87., 87., 199., 199., 199., 255.,
          255., 255., 185., 185., 185., 59., 59., 59., 0., 0., 0., 0.,
          0., 0., 19., 19., 19., 64., 64., 64., 0., 0., 0., 0., 0., 0.,
          2., 2., 2., 0., 0., 0., 3., 3., 3., 0., 0., 0., 0., 0., 0., 4.,
          4., 4., 0., 0., 0., 0., 0., 0., 107., 107., 107., 247., 247.,
          247., 253., 253., 253., 227., 227., 227., 60., 60., 60., 0.,
          0., 0., 1., 1., 1., 0., 0., 0., 17., 17., 17., 53., 53., 53.,
          4., 4., 4., 0., 0., 0., 0., 0., 0., 1., 1., 1., 2., 2., 2., 0.,
          0., 0., 4., 4., 4., 0., 0., 0., 0., 0., 0., 99., 99., 99.,
          242., 242., 242., 255., 255., 255., 234., 234., 234., 74., 74.,
          74., 0., 0., 0., 3., 3., 3., 0., 0., 0., 0., 0., 0., 0., 0.,
          0., 1., 1., 1., 0., 0., 0., 3., 3., 3., 0., 0., 0., 0., 0., 0.,
          0., 0., 0., 1., 1., 1., 0., 0., 0., 1., 1., 1., 96., 96., 96.,
          255., 255., 255., 255., 255., 255., 226., 226., 226., 60., 60.,
          60., 4., 4., 4., 1., 1., 1., 0., 0., 0., 4., 4., 4., 1., 1.,
          1., 2., 2., 2., 0., 0., 0., 2., 2., 2., 0., 0., 0., 4., 4., 4.,
          0., 0., 0., 0., 0., 0., 0., 0., 0., 1., 1., 1., 30., 30., 30.,
          204., 204., 204., 251., 251., 251., 240., 240., 240., 73., 73.,
          73., 1., 1., 1., 0., 0., 0., 0., 0., 0., 0., 0., 0., 0., 0.,
          0., 1., 1., 1., 0., 0., 0., 4., 4., 4., 0., 0., 0., 1., 1., 1.,
          0., 0., 0., 3., 3., 3., 3., 3., 3., 0., 0., 0., 42., 42., 42.,
          188., 188., 188., 255., 255., 255., 237., 237., 237., 127.,
          127., 127., 0., 0., 0., 3., 3., 3., 0., 0., 0., 3., 3., 3., 1.,
          1., 1., 0., 0., 0., 0., 0., 0., 0., 0., 0., 0., 0., 0., 0., 0.,
          0., 0., 0., 0., 1., 1., 1., 0., 0., 0., 0., 0., 0., 102., 102.,
          102., 226., 226., 226., 255., 255., 255., 254., 254., 254.,
          143., 143., 143., 5., 5., 5., 2., 2., 2., 0., 0., 0., 0., 0.,
          0., 0., 0., 0., 2., 2., 2., 0., 0., 0., 1., 1., 1., 2., 2., 2.,
          0., 0., 0., 2., 2., 2., 0., 0., 0., 0., 0., 0., 4., 4., 4., 0.,
          0., 0., 195., 195., 195., 255., 255., 255., 255., 255., 255.,
          164., 164., 164., 11., 11., 11., 0., 0., 0., 0., 0., 0., 1.,
          1., 1., 1., 1., 1., 0., 0., 0., 0., 0., 0., 0., 0., 0., 1., 1.,
          1., 1., 1., 1., 0., 0., 0., 0., 0., 0., 0., 0., 0., 1., 1., 1.,
          0., 0., 0., 1., 1., 1., 114., 114., 114., 166., 166., 166.,
          126., 126., 126., 17., 17., 17., 0., 0., 0., 0., 0., 0., 2.,
          2., 2., 0., 0., 0., 1., 1., 1., 0., 0., 0., 0., 0., 0., 0., 0.,
          0., 0., 0., 0., 0., 0., 0., 2., 2., 2., 1., 1., 1., 0., 0., 0.,
          0., 0., 0., 0., 0., 0., 0., 0., 0., 0., 0., 0., 0., 0., 0., 0.,
          0., 0., 0., 0., 0., 0., 0., 0., 0., 0., 0., 0., 0., 0., 0., 0.,
          0., 0., 0., 0., 0., 0., 0., 0., 0., 0., 0., 0., 0., 0., 0., 0.,
          0., 0., 0., 0., 0., 0., 0., 0., 0., 0., 0., 0., 0., 0., 0., 0.,
          0., 0., 0., 0., 0., 0., 0., 0., 0., 0., 0., 0., 0., 0., 0., 0.,
          0., 0., 0., 0., 0., 0., 0., 0., 0., 0., 0., 0., 0., 0., 0., 0.,
          0., 0., 0., 0., 0., 0., 0., 0., 0., 0., 0., 0., 0., 0., 0., 0.,
          0., 0., 0., 0., 0., 0., 0., 0., 0., 0., 0., 0., 0., 0., 0., 0.,
          0., 0., 0., 0., 0., 0., 0., 0., 0., 0., 0., 0., 0., 0., 0., 0.,
          0., 0., 0., 0., 0., 0., 0., 0., 0., 0., 0., 0., 0., 0., 0., 0.,
          0., 0., 0., 0., 0., 0., 0., 0., 0., 0., 0., 0., 0., 0., 0., 0.,
          0., 0., 0., 0., 0., 0., 0., 0., 0., 0., 0., 0., 0., 0., 0., 0.,
          0., 0., 0., 0., 0., 0., 0., 0., 0., 0., 0., 0., 0., 0., 0., 0.,
          0., 0., 0., 0., 0., 0., 0., 0., 0., 0., 0., 0., 0., 0., 0., 0.,
          0., 0., 0., 0., 0., 0., 0., 0., 0., 0., 0., 0., 0. ]
      - [ 1., 1., 1., 0., 0., 0., 0., 0., 0., 2., 2., 2., 0., 0., 0., 1.,
          1., 1., 0., 0., 0., 0., 0., 0., 1., 1., 1., 0., 0., 0., 0., 0.,
          0., 0., 0., 0., 0., 0., 0., 1., 1., 1., 0., 0., 0., 0., 0., 0.,
          0., 0., 0., 0., 0., 0., 0., 0., 0., 0., 0., 0., 0., 0., 0., 4.,
          4., 4., 0., 0., 0., 0., 0., 0., 0., 0., 0., 0., 0., 0., 3., 3.,
          3., 1., 1., 1., 0., 0., 0., 1., 1., 1., 2., 2., 2., 0., 0., 0.,
          0., 0., 0., 3., 3., 3., 0., 0., 0., 2., 2., 2., 0., 0., 0., 0.,
          0., 0., 0., 0., 0., 0., 0., 0., 0., 0., 0., 1., 1., 1., 1., 1.,
          1., 1., 1., 1., 0., 0., 0., 1., 1., 1., 0., 0., 0., 0., 0., 0.,
          0., 0., 0., 0., 0., 0., 8., 8., 8., 29., 29., 29., 3., 3., 3.,
          1., 1., 1., 0., 0., 0., 0., 0., 0., 0., 0., 0., 0., 0., 0., 0.,
          0., 0., 0., 0., 0., 1., 1., 1., 2., 2., 2., 0., 0., 0., 1., 1.,
          1., 2., 2., 2., 0., 0., 0., 0., 0., 0., 2., 2., 2., 0., 0., 0.,
          14., 14., 14., 154., 154., 154., 218., 218., 218., 26., 26.,
          26., 0., 0., 0., 3., 3., 3., 0., 0., 0., 0., 0., 0., 0., 0.,
          0., 0., 0., 0., 0., 0., 0., 0., 0., 0., 0., 0., 0., 0., 0., 0.,
          0., 0., 0., 1., 1., 1., 1., 1., 1., 4., 4., 4., 0., 0., 0.,
          63., 63., 63., 183., 183., 183., 215., 215., 215., 193., 193.,
          193., 13., 13., 13., 0., 0., 0., 0., 0., 0., 2., 2., 2., 0.,
          0., 0., 0., 0., 0., 0., 0., 0., 0., 0., 0., 2., 2., 2., 2., 2.,
          2., 3., 3., 3., 2., 2., 2., 0., 0., 0., 0., 0., 0., 0., 0., 0.,
          69., 69., 69., 237., 237., 237., 110., 110., 110., 116., 116.,
          116., 164., 164., 164., 0., 0., 0., 0., 0., 0., 3., 3., 3., 0.,
          0., 0., 0., 0., 0., 0., 0., 0., 0., 0., 0., 0., 0., 0., 0., 0.,
          0., 2., 2., 2., 0., 0., 0., 0., 0., 0., 4., 4., 4., 0., 0., 0.,
          1., 1., 1., 141., 141., 141., 150., 150., 150., 0., 0., 0.,
          114., 114., 114., 184., 184., 184., 8., 8., 8., 0., 0., 0., 0.,
          0., 0., 4., 4., 4., 0., 0., 0., 0., 0., 0., 0., 0., 0., 0., 0.,
          0., 1., 1., 1., 0., 0., 0., 5., 5., 5., 0., 0., 0., 0., 0., 0.,
          0., 0., 0., 1., 1., 1., 20., 20., 20., 15., 15., 15., 0., 0.,
          0., 125., 125., 125., 148., 148., 148., 0., 0., 0., 1., 1., 1.,
          2., 2., 2., 0., 0., 0., 0., 0., 0., 0., 0., 0., 0., 0., 0., 0.,
          0., 0., 3., 3., 3., 0., 0., 0., 0., 0., 0., 0., 0., 0., 0., 0.,
          0., 0., 0., 0., 0., 0., 0., 0., 0., 0., 0., 0., 0., 0., 0., 0.,
          159., 159., 159., 122., 122., 122., 0., 0., 0., 0., 0., 0., 0.,
          0., 0., 0., 0., 0., 0., 0., 0., 0., 0., 0., 0., 0., 0., 0., 0.,
          0., 0., 0., 0., 0., 0., 0., 0., 0., 0., 0., 0., 0., 1., 1., 1.,
          1., 1., 1., 1., 1., 1., 1., 1., 1., 1., 1., 1., 6., 6., 6.,
          191., 191., 191., 87., 87., 87., 0., 0., 0., 2., 2., 2., 1.,
          1., 1., 0., 0., 0., 0., 0., 0., 0., 0., 0., 0., 0., 0., 0., 0.,
          0., 0., 0., 0., 0., 0., 0., 1., 1., 1., 0., 0., 0., 0., 0., 0.,
          0., 0., 0., 0., 0., 0., 0., 0., 0., 0., 0., 0., 15., 15., 15.,
          203., 203., 203., 66., 66., 66., 1., 1., 1., 1., 1., 1., 0.,
          0., 0., 2., 2., 2., 0., 0., 0., 0., 0., 0., 0., 0., 0., 0., 0.,
          0., 0., 0., 0., 1., 1., 1., 0., 0., 0., 0., 0., 0., 0., 0., 0.,
          0., 0., 0., 0., 0., 0., 0., 0., 0., 0., 0., 0., 35., 35., 35.,
          217., 217., 217., 50., 50., 50., 1., 1., 1., 0., 0., 0., 1.,
          1., 1., 0., 0., 0., 0., 0., 0., 0., 0., 0., 0., 0., 0., 0., 0.,
          0., 0., 0., 0., 0., 0., 0., 0., 0., 0., 0., 0., 0., 0., 0., 0.,
          1., 1., 1., 1., 1., 1., 0., 0., 0., 0., 0., 0., 71., 71., 71.,
          197., 197., 197., 21., 21., 21., 0., 0., 0., 0., 0., 0., 1.,
          1., 1., 0., 0., 0., 0., 0., 0., 0., 0., 0., 0., 0., 0., 0., 0.,
          0., 0., 0., 0., 0., 0., 0., 0., 0., 0., 1., 1., 1., 1., 1., 1.,
          0., 0., 0., 0., 0., 0., 0., 0., 0., 1., 1., 1., 135., 135.,
          135., 158., 158., 158., 0., 0., 0., 4., 4., 4., 2., 2., 2., 0.,
          0., 0., 2., 2., 2., 0., 0., 0., 0., 0., 0., 0., 0., 0., 0., 0.,
          0., 1., 1., 1., 0., 0., 0., 0., 0., 0., 1., 1., 1., 0., 0., 0.,
          0., 0., 0., 0., 0., 0., 3., 3., 3., 0., 0., 0., 163., 163.,
          163., 149., 149., 149., 1., 1., 1., 0., 0., 0., 0., 0., 0., 4.,
          4., 4., 0., 0., 0., 0., 0., 0., 0., 0., 0., 0., 0., 0., 0., 0.,
          0., 1., 1., 1., 0., 0., 0., 0., 0., 0., 1., 1., 1., 0., 0., 0.,
          0., 0., 0., 5., 5., 5., 12., 12., 12., 71., 71., 71., 205.,
          205., 205., 211., 211., 211., 89., 89., 89., 0., 0., 0., 0.,
          0., 0., 0., 0., 0., 0., 0., 0., 0., 0., 0., 0., 0., 0., 0., 0.,
          0., 0., 0., 0., 0., 0., 0., 0., 0., 0., 0., 0., 0., 3., 3., 3.,
          0., 0., 0., 1., 1., 1., 80., 80., 80., 192., 192., 192., 232.,
          232., 232., 253., 253., 253., 164., 164., 164., 62., 62., 62.,
          0., 0., 0., 0., 0., 0., 0., 0., 0., 1., 1., 1., 0., 0., 0., 0.,
          0., 0., 0., 0., 0., 0., 0., 0., 1., 1., 1., 1., 1., 1., 0., 0.,
          0., 0., 0., 0., 1., 1., 1., 2., 2., 2., 20., 20., 20., 48.,
          48., 48., 31., 31., 31., 34., 34., 34., 5., 5., 5., 0., 0., 0.,
          0., 0., 0., 1., 1., 1., 0., 0., 0., 1., 1., 1., 0., 0., 0., 0.,
          0., 0., 0., 0., 0., 0., 0., 0., 0., 0., 0., 0., 0., 0., 1., 1.,
          1., 0., 0., 0., 0., 0., 0., 0., 0., 0., 1., 1., 1., 0., 0., 0.,
          0., 0., 0., 0., 0., 0., 0., 0., 0., 2., 2., 2., 3., 3., 3., 0.,
          0., 0., 1., 1., 1., 0., 0., 0., 0., 0., 0., 0., 0., 0., 0., 0.,
          0., 0., 0., 0., 3., 3., 3., 0., 0., 0., 0., 0., 0., 2., 2., 2.,
          0., 0., 0., 0., 0., 0., 2., 2., 2., 2., 2., 2., 2., 2., 2., 0.,
          0., 0., 2., 2., 2., 0., 0., 0., 0., 0., 0., 0., 0., 0., 2., 2.,
          2., 1., 1., 1., 0., 0., 0., 0., 0., 0., 0., 0., 0., 0., 0., 0. ]
      - [ 0., 0., 0., 0., 0., 0., 0., 0., 0., 0., 0., 0., 0., 0., 0., 0.,
          0., 0., 0., 0., 0., 0., 0., 0., 3., 3., 3., 0., 0., 0., 0., 0.,
          0., 3., 3., 3., 1., 1., 1., 0., 0., 0., 1., 1., 1., 0., 0., 0.,
          0., 0., 0., 0., 0., 0., 0., 0., 0., 0., 0., 0., 0., 0., 0., 0.,
          0., 0., 0., 0., 0., 0., 0., 0., 0., 0., 0., 0., 0., 0., 0., 0.,
          0., 0., 0., 0., 0., 0., 0., 0., 0., 0., 2., 2., 2., 0., 0., 0.,
          0., 0., 0., 3., 3., 3., 1., 1., 1., 0., 0., 0., 0., 0., 0., 0.,
          0., 0., 0., 0., 0., 0., 0., 0., 0., 0., 0., 0., 0., 0., 0., 0.,
          0., 0., 0., 0., 0., 0., 0., 0., 0., 0., 0., 0., 0., 0., 0., 0.,
          0., 0., 0., 3., 3., 3., 0., 0., 0., 1., 1., 1., 36., 36., 36.,
          16., 16., 16., 0., 0., 0., 0., 0., 0., 0., 0., 0., 0., 0., 0.,
          0., 0., 0., 0., 0., 0., 0., 0., 0., 0., 0., 0., 0., 0., 0., 0.,
          0., 0., 0., 0., 0., 0., 0., 0., 0., 0., 0., 0., 0., 0., 0., 0.,
          0., 0., 0., 0., 1., 1., 1., 107., 107., 107., 219., 219., 219.,
          48., 48., 48., 3., 3., 3., 0., 0., 0., 0., 0., 0., 0., 0., 0.,
          0., 0., 0., 0., 0., 0., 0., 0., 0., 0., 0., 0., 0., 0., 0., 0.,
          0., 0., 0., 0., 0., 0., 0., 0., 0., 0., 0., 0., 0., 0., 0., 0.,
          0., 2., 2., 2., 14., 14., 14., 202., 202., 202., 110., 110.,
          110., 0., 0., 0., 1., 1., 1., 1., 1., 1., 0., 0., 0., 0., 0.,
          0., 0., 0., 0., 0., 0., 0., 0., 0., 0., 0., 0., 0., 0., 0., 0.,
          0., 0., 0., 0., 0., 0., 0., 0., 0., 0., 0., 0., 0., 0., 0., 0.,
          0., 0., 0., 0., 0., 45., 45., 45., 234., 234., 234., 49., 49.,
          49., 0., 0., 0., 0., 0., 0., 0., 0., 0., 0., 0., 0., 0., 0.,
          0., 0., 0., 0., 0., 0., 0., 0., 0., 0., 0., 0., 0., 0., 0., 0.,
          0., 0., 0., 0., 0., 0., 0., 0., 0., 0., 0., 0., 0., 0., 0., 1.,
          1., 1., 0., 0., 0., 106., 106., 106., 217., 217., 217., 18.,
          18., 18., 0., 0., 0., 1., 1., 1., 0., 0., 0., 0., 0., 0., 0.,
          0., 0., 0., 0., 0., 0., 0., 0., 0., 0., 0., 0., 0., 0., 0., 0.,
          0., 0., 0., 0., 0., 0., 0., 0., 0., 0., 0., 0., 0., 0., 0., 0.,
          0., 0., 0., 14., 14., 14., 221., 221., 221., 141., 141., 141.,
          0., 0., 0., 0., 0., 0., 0., 0., 0., 1., 1., 1., 0., 0., 0., 0.,
          0., 0., 0., 0., 0., 0., 0., 0., 0., 0., 0., 0., 0., 0., 0., 0.,
          0., 2., 2., 2., 0., 0., 0., 0., 0., 0., 1., 1., 1., 0., 0., 0.,
          0., 0., 0., 74., 74., 74., 236., 236., 236., 67., 67., 67., 0.,
          0., 0., 3., 3., 3., 0., 0., 0., 2., 2., 2., 0., 0., 0., 0., 0.,
          0., 0., 0., 0., 0., 0., 0., 0., 0., 0., 0., 0., 0., 0., 0., 0.,
          0., 0., 0., 0., 0., 0., 0., 0., 0., 2., 2., 2., 0., 0., 0., 4.,
          4., 4., 176., 176., 176., 188., 188., 188., 2., 2., 2., 0., 0.,
          0., 0., 0., 0., 2., 2., 2., 0., 0., 0., 0., 0., 0., 0., 0., 0.,
          0., 0., 0., 0., 0., 0., 0., 0., 0., 0., 0., 0., 0., 0., 0., 0.,
          0., 0., 0., 0., 0., 1., 1., 1., 1., 1., 1., 0., 0., 0., 40.,
          40., 40., 221., 221., 221., 109., 109., 109., 2., 2., 2., 0.,
          0., 0., 1., 1., 1., 0., 0., 0., 1., 1., 1., 0., 0., 0., 0., 0.,
          0., 0., 0., 0., 0., 0., 0., 0., 0., 0., 0., 0., 0., 1., 1., 1.,
          0., 0., 0., 1., 1., 1., 0., 0., 0., 0., 0., 0., 0., 0., 0.,
          92., 92., 92., 222., 222., 222., 26., 26., 26., 0., 0., 0., 2.,
          2., 2., 0., 0., 0., 2., 2., 2., 0., 0., 0., 0., 0., 0., 0., 0.,
          0., 0., 0., 0., 0., 0., 0., 0., 0., 0., 0., 0., 0., 1., 1., 1.,
          1., 1., 1., 1., 1., 1., 0., 0., 0., 0., 0., 0., 7., 7., 7.,
          167., 167., 167., 187., 187., 187., 0., 0., 0., 0., 0., 0., 1.,
          1., 1., 0., 0., 0., 0., 0., 0., 3., 3., 3., 0., 0., 0., 0., 0.,
          0., 0., 0., 0., 0., 0., 0., 1., 1., 1., 0., 0., 0., 0., 0., 0.,
          0., 0., 0., 0., 0., 0., 0., 0., 0., 1., 1., 1., 16., 16., 16.,
          205., 205., 205., 137., 137., 137., 0., 0., 0., 1., 1., 1., 0.,
          0., 0., 2., 2., 2., 1., 1., 1., 0., 0., 0., 0., 0., 0., 0., 0.,
          0., 0., 0., 0., 0., 0., 0., 0., 0., 0., 0., 0., 0., 1., 1., 1.,
          0., 0., 0., 0., 0., 0., 0., 0., 0., 1., 1., 1., 17., 17., 17.,
          212., 212., 212., 96., 96., 96., 0., 0., 0., 0., 0., 0., 0.,
          0., 0., 0., 0., 0., 4., 4., 4., 0., 0., 0., 0., 0., 0., 0., 0.,
          0., 0., 0., 0., 0., 0., 0., 0., 0., 0., 0., 0., 0., 3., 3., 3.,
          0., 0., 0., 0., 0., 0., 0., 0., 0., 0., 0., 0., 11., 11., 11.,
          182., 182., 182., 167., 167., 167., 11., 11., 11., 1., 1., 1.,
          1., 1., 1., 1., 1., 1., 0., 0., 0., 0., 0., 0., 0., 0., 0., 0.,
          0., 0., 0., 0., 0., 0., 0., 0., 0., 0., 0., 0., 0., 0., 0., 0.,
          0., 0., 0., 0., 0., 0., 0., 0., 0., 0., 0., 0., 0., 0., 0., 0.,
          59., 59., 59., 215., 215., 215., 153., 153., 153., 13., 13.,
          13., 3., 3., 3., 0., 0., 0., 0., 0., 0., 1., 1., 1., 0., 0.,
          0., 0., 0., 0., 0., 0., 0., 0., 0., 0., 0., 0., 0., 0., 0., 0.,
          0., 0., 0., 0., 0., 0., 0., 0., 0., 0., 0., 0., 0., 0., 0., 0.,
          0., 0., 0., 0., 0., 23., 23., 23., 37., 37., 37., 1., 1., 1.,
          0., 0., 0., 5., 5., 5., 0., 0., 0., 0., 0., 0., 0., 0., 0., 0.,
          0., 0., 0., 0., 0., 0., 0., 0., 0., 0., 0., 0., 0., 0., 0., 0.,
          0., 0., 0., 0., 0., 0., 0., 0., 0., 0., 0., 0., 0., 0., 0., 0.,
          0., 0., 0., 0., 0., 0., 1., 1., 1., 0., 0., 0., 2., 2., 2., 0.,
          0., 0., 0., 0., 0., 0., 0., 0., 0., 0., 0., 0., 0., 0., 0., 0.,
          0., 0., 0., 0., 0., 0., 0., 0., 0., 0., 0., 0., 0., 0., 0., 0.,
          0., 0., 0., 0., 0., 0., 0., 0., 0., 0., 0., 0., 0., 0., 0., 3.,
          3., 3., 0., 0., 0., 0., 0., 0., 2., 2., 2., 0., 0., 0., 1., 1.,
          1., 1., 1., 1., 0., 0., 0., 0., 0., 0., 0., 0., 0., 0., 0., 0. ]
      - [ 3., 3., 3., 0., 0., 0., 0., 0., 0., 3., 3., 3., 0., 0., 0., 0.,
          0., 0., 0., 0., 0., 0., 0., 0., 0., 0., 0., 0., 0., 0., 0., 0.,
          0., 1., 1., 1., 1., 1., 1., 0., 0., 0., 1., 1., 1., 0., 0., 0.,
          0., 0., 0., 0., 0., 0., 0., 0., 0., 0., 0., 0., 0., 0., 0., 2.,
          2., 2., 0., 0., 0., 0., 0., 0., 2., 2., 2., 0., 0., 0., 2., 2.,
          2., 0., 0., 0., 0., 0., 0., 2., 2., 2., 0., 0., 0., 0., 0., 0.,
          0., 0., 0., 2., 2., 2., 0., 0., 0., 0., 0., 0., 0., 0., 0., 0.,
          0., 0., 0., 0., 0., 0., 0., 0., 2., 2., 2., 2., 2., 2., 0., 0.,
          0., 4., 4., 4., 0., 0., 0., 0., 0., 0., 0., 0., 0., 9., 9., 9.,
          87., 87., 87., 145., 145., 145., 197., 197., 197., 120., 120.,
          120., 0., 0., 0., 0., 0., 0., 1., 1., 1., 1., 1., 1., 0., 0.,
          0., 0., 0., 0., 0., 0., 0., 0., 0., 0., 0., 0., 0., 1., 1., 1.,
          0., 0., 0., 0., 0., 0., 0., 0., 0., 29., 29., 29., 102., 102.,
          102., 178., 178., 178., 214., 214., 214., 217., 217., 217.,
          255., 255., 255., 158., 158., 158., 2., 2., 2., 0., 0., 0., 0.,
          0., 0., 0., 0., 0., 0., 0., 0., 0., 0., 0., 0., 0., 0., 0., 0.,
          0., 0., 0., 0., 2., 2., 2., 0., 0., 0., 3., 3., 3., 0., 0., 0.,
          74., 74., 74., 255., 255., 255., 250., 250., 250., 118., 118.,
          118., 31., 31., 31., 163., 163., 163., 180., 180., 180., 6.,
          6., 6., 1., 1., 1., 1., 1., 1., 1., 1., 1., 0., 0., 0., 0., 0.,
          0., 0., 0., 0., 0., 0., 0., 1., 1., 1., 0., 0., 0., 1., 1., 1.,
          0., 0., 0., 2., 2., 2., 12., 12., 12., 60., 60., 60., 30., 30.,
          30., 2., 2., 2., 2., 2., 2., 136., 136., 136., 204., 204.,
          204., 17., 17., 17., 0., 0., 0., 0., 0., 0., 0., 0., 0., 0.,
          0., 0., 0., 0., 0., 0., 0., 0., 0., 0., 0., 0., 0., 0., 0., 0.,
          0., 3., 3., 3., 2., 2., 2., 0., 0., 0., 0., 0., 0., 0., 0., 0.,
          0., 0., 0., 0., 0., 0., 3., 3., 3., 136., 136., 136., 204.,
          204., 204., 15., 15., 15., 0., 0., 0., 0., 0., 0., 3., 3., 3.,
          0., 0., 0., 0., 0., 0., 0., 0., 0., 0., 0., 0., 1., 1., 1., 2.,
          2., 2., 0., 0., 0., 0., 0., 0., 1., 1., 1., 1., 1., 1., 2., 2.,
          2., 0., 0., 0., 1., 1., 1., 0., 0., 0., 147., 147., 147., 155.,
          155., 155., 0., 0., 0., 0., 0., 0., 1., 1., 1., 0., 0., 0., 0.,
          0., 0., 0., 0., 0., 0., 0., 0., 0., 0., 0., 0., 0., 0., 1., 1.,
          1., 1., 1., 1., 0., 0., 0., 3., 3., 3., 0., 0., 0., 0., 0., 0.,
          1., 1., 1., 0., 0., 0., 3., 3., 3., 146., 146., 146., 141.,
          141., 141., 0., 0., 0., 2., 2., 2., 0., 0., 0., 1., 1., 1., 0.,
          0., 0., 0., 0., 0., 0., 0., 0., 0., 0., 0., 2., 2., 2., 0., 0.,
          0., 2., 2., 2., 0., 0., 0., 0., 0., 0., 4., 4., 4., 0., 0., 0.,
          1., 1., 1., 0., 0., 0., 0., 0., 0., 142., 142., 142., 130.,
          130., 130., 1., 1., 1., 0., 0., 0., 2., 2., 2., 0., 0., 0., 0.,
          0., 0., 1., 1., 1., 2., 2., 2., 4., 4., 4., 1., 1., 1., 0., 0.,
          0., 1., 1., 1., 2., 2., 2., 0., 0., 0., 0., 0., 0., 0., 0., 0.,
          0., 0., 0., 3., 3., 3., 0., 0., 0., 172., 172., 172., 90., 90.,
          90., 0., 0., 0., 0., 0., 0., 0., 0., 0., 1., 1., 1., 1., 1.,
          1., 0., 0., 0., 0., 0., 0., 0., 0., 0., 1., 1., 1., 0., 0., 0.,
          0., 0., 0., 1., 1., 1., 2., 2., 2., 0., 0., 0., 3., 3., 3., 1.,
          1., 1., 0., 0., 0., 5., 5., 5., 160., 160., 160., 86., 86.,
          86., 0., 0., 0., 3., 3., 3., 0., 0., 0., 0., 0., 0., 0., 0.,
          0., 1., 1., 1., 0., 0., 0., 5., 5., 5., 1., 1., 1., 1., 1., 1.,
          0., 0., 0., 0., 0., 0., 0., 0., 0., 2., 2., 2., 0., 0., 0., 0.,
          0., 0., 0., 0., 0., 6., 6., 6., 184., 184., 184., 82., 82.,
          82., 1., 1., 1., 0., 0., 0., 13., 13., 13., 26., 26., 26., 19.,
          19., 19., 0., 0., 0., 0., 0., 0., 0., 0., 0., 0., 0., 0., 2.,
          2., 2., 0., 0., 0., 2., 2., 2., 0., 0., 0., 0., 0., 0., 3., 3.,
          3., 0., 0., 0., 2., 2., 2., 0., 0., 0., 163., 163., 163., 172.,
          172., 172., 141., 141., 141., 98., 98., 98., 173., 173., 173.,
          216., 216., 216., 209., 209., 209., 118., 118., 118., 2., 2.,
          2., 0., 0., 0., 0., 0., 0., 2., 2., 2., 0., 0., 0., 1., 1., 1.,
          15., 15., 15., 87., 87., 87., 100., 100., 100., 91., 91., 91.,
          153., 153., 153., 167., 167., 167., 235., 235., 235., 254.,
          254., 254., 223., 223., 223., 237., 237., 237., 227., 227.,
          227., 255., 255., 255., 197., 197., 197., 204., 204., 204.,
          23., 23., 23., 1., 1., 1., 1., 1., 1., 0., 0., 0., 0., 0., 0.,
          0., 0., 0., 37., 37., 37., 244., 244., 244., 255., 255., 255.,
          255., 255., 255., 237., 237., 237., 205., 205., 205., 205.,
          205., 205., 153., 153., 153., 40., 40., 40., 64., 64., 64.,
          70., 70., 70., 48., 48., 48., 5., 5., 5., 32., 32., 32., 1.,
          1., 1., 1., 1., 1., 0., 0., 0., 5., 5., 5., 0., 0., 0., 0., 0.,
          0., 5., 5., 5., 79., 79., 79., 110., 110., 110., 110., 110.,
          110., 59., 59., 59., 16., 16., 16., 14., 14., 14., 0., 0., 0.,
          1., 1., 1., 0., 0., 0., 0., 0., 0., 2., 2., 2., 0., 0., 0., 0.,
          0., 0., 0., 0., 0., 0., 0., 0., 1., 1., 1., 0., 0., 0., 0., 0.,
          0., 2., 2., 2., 0., 0., 0., 4., 4., 4., 0., 0., 0., 0., 0., 0.,
          5., 5., 5., 0., 0., 0., 3., 3., 3., 0., 0., 0., 0., 0., 0., 0.,
          0., 0., 0., 0., 0., 0., 0., 0., 0., 0., 0., 0., 0., 0., 0., 0.,
          0., 0., 0., 0., 0., 0., 0., 2., 2., 2., 4., 4., 4., 0., 0., 0.,
          1., 1., 1., 1., 1., 1., 0., 0., 0., 0., 0., 0., 0., 0., 0., 0.,
          0., 0., 0., 0., 0., 1., 1., 1., 0., 0., 0., 0., 0., 0., 2., 2.,
          2., 0., 0., 0., 0., 0., 0., 0., 0., 0., 0., 0., 0., 0., 0., 0.,
          0., 0., 0., 1., 1., 1., 0., 0., 0., 0., 0., 0., 0., 0., 0., 0.,
          0., 0., 0., 0., 0., 1., 1., 1., 2., 2., 2., 4., 4., 4., 0., 0.,
          0., 3., 3., 3., 0., 0., 0., 1., 1., 1., 0., 0., 0., 0., 0., 0.,
          0., 0., 0., 0., 0., 0., 0., 0., 0., 0., 0., 0. ]
      - [ 0., 0., 0., 0., 0., 0., 0., 0., 0., 0., 0., 0., 0., 0., 0., 0.,
          0., 0., 0., 0., 0., 0., 0., 0., 0., 0., 0., 1., 1., 1., 2., 2.,
          2., 0., 0., 0., 1., 1., 1., 3., 3., 3., 0., 0., 0., 1., 1., 1.,
          0., 0., 0., 0., 0., 0., 0., 0., 0., 0., 0., 0., 0., 0., 0., 0.,
          0., 0., 0., 0., 0., 0., 0., 0., 0., 0., 0., 0., 0., 0., 0., 0.,
          0., 0., 0., 0., 1., 1., 1., 1., 1., 1., 0., 0., 0., 1., 1., 1.,
          0., 0., 0., 0., 0., 0., 1., 1., 1., 1., 1., 1., 0., 0., 0., 0.,
          0., 0., 0., 0., 0., 0., 0., 0., 0., 0., 0., 0., 0., 0., 0., 0.,
          0., 0., 0., 0., 0., 0., 0., 0., 0., 0., 0., 0., 0., 0., 0., 0.,
          0., 0., 0., 0., 0., 0., 0., 0., 0., 1., 1., 1., 1., 1., 1., 0.,
          0., 0., 4., 4., 4., 0., 0., 0., 0., 0., 0., 0., 0., 0., 0., 0.,
          0., 0., 0., 0., 0., 0., 0., 0., 0., 0., 0., 0., 0., 0., 0., 0.,
          0., 0., 0., 0., 0., 0., 0., 0., 0., 0., 0., 0., 0., 0., 0., 3.,
          3., 3., 80., 80., 80., 44., 44., 44., 1., 1., 1., 0., 0., 0.,
          0., 0., 0., 1., 1., 1., 0., 0., 0., 0., 0., 0., 0., 0., 0., 0.,
          0., 0., 0., 0., 0., 0., 0., 0., 0., 0., 0., 0., 0., 0., 0., 0.,
          0., 0., 0., 0., 0., 0., 0., 0., 0., 0., 0., 0., 0., 20., 20.,
          20., 235., 235., 235., 124., 124., 124., 0., 0., 0., 1., 1.,
          1., 0., 0., 0., 3., 3., 3., 0., 0., 0., 0., 0., 0., 0., 0., 0.,
          0., 0., 0., 0., 0., 0., 0., 0., 0., 0., 0., 0., 0., 0., 0., 0.,
          0., 0., 0., 0., 0., 0., 0., 0., 0., 0., 0., 2., 2., 2., 41.,
          41., 41., 255., 255., 255., 121., 121., 121., 3., 3., 3., 0.,
          0., 0., 4., 4., 4., 0., 0., 0., 0., 0., 0., 0., 0., 0., 0., 0.,
          0., 0., 0., 0., 0., 0., 0., 0., 0., 0., 0., 0., 0., 0., 0., 0.,
          0., 0., 0., 0., 0., 0., 0., 0., 0., 0., 0., 0., 0., 0., 0.,
          57., 57., 57., 252., 252., 252., 120., 120., 120., 0., 0., 0.,
          0., 0., 0., 0., 0., 0., 2., 2., 2., 0., 0., 0., 0., 0., 0., 0.,
          0., 0., 0., 0., 0., 0., 0., 0., 0., 0., 0., 0., 0., 0., 0., 0.,
          0., 0., 0., 0., 0., 0., 0., 0., 0., 0., 0., 0., 0., 0., 0., 0.,
          157., 157., 157., 254., 254., 254., 105., 105., 105., 0., 0.,
          0., 2., 2., 2., 0., 0., 0., 0., 0., 0., 0., 0., 0., 0., 0., 0.,
          0., 0., 0., 0., 0., 0., 1., 1., 1., 0., 0., 0., 0., 0., 0., 1.,
          1., 1., 0., 0., 0., 0., 0., 0., 1., 1., 1., 0., 0., 0., 81.,
          81., 81., 209., 209., 209., 226., 226., 226., 99., 99., 99.,
          1., 1., 1., 0., 0., 0., 0., 0., 0., 0., 0., 0., 0., 0., 0., 0.,
          0., 0., 0., 0., 0., 0., 0., 0., 0., 0., 0., 0., 0., 0., 0., 0.,
          0., 0., 0., 0., 1., 1., 1., 1., 1., 1., 0., 0., 0., 90., 90.,
          90., 215., 215., 215., 89., 89., 89., 162., 162., 162., 130.,
          130., 130., 0., 0., 0., 4., 4., 4., 0., 0., 0., 3., 3., 3., 0.,
          0., 0., 0., 0., 0., 0., 0., 0., 0., 0., 0., 1., 1., 1., 0., 0.,
          0., 0., 0., 0., 0., 0., 0., 0., 0., 0., 4., 4., 4., 0., 0., 0.,
          45., 45., 45., 26., 26., 26., 0., 0., 0., 202., 202., 202.,
          123., 123., 123., 0., 0., 0., 1., 1., 1., 2., 2., 2., 0., 0.,
          0., 0., 0., 0., 0., 0., 0., 0., 0., 0., 0., 0., 0., 0., 0., 0.,
          2., 2., 2., 0., 0., 0., 0., 0., 0., 1., 1., 1., 1., 1., 1., 0.,
          0., 0., 0., 0., 0., 0., 0., 0., 6., 6., 6., 224., 224., 224.,
          122., 122., 122., 2., 2., 2., 2., 2., 2., 0., 0., 0., 4., 4.,
          4., 0., 0., 0., 0., 0., 0., 0., 0., 0., 0., 0., 0., 0., 0., 0.,
          0., 0., 0., 2., 2., 2., 0., 0., 0., 3., 3., 3., 0., 0., 0., 0.,
          0., 0., 5., 5., 5., 0., 0., 0., 6., 6., 6., 228., 228., 228.,
          123., 123., 123., 1., 1., 1., 0., 0., 0., 0., 0., 0., 0., 0.,
          0., 0., 0., 0., 0., 0., 0., 0., 0., 0., 0., 0., 0., 1., 1., 1.,
          0., 0., 0., 1., 1., 1., 0., 0., 0., 0., 0., 0., 0., 0., 0., 1.,
          1., 1., 0., 0., 0., 3., 3., 3., 6., 6., 6., 203., 203., 203.,
          123., 123., 123., 0., 0., 0., 2., 2., 2., 3., 3., 3., 1., 1.,
          1., 0., 0., 0., 0., 0., 0., 0., 0., 0., 0., 0., 0., 0., 0., 0.,
          4., 4., 4., 0., 0., 0., 0., 0., 0., 1., 1., 1., 0., 0., 0., 1.,
          1., 1., 2., 2., 2., 0., 0., 0., 0., 0., 0., 152., 152., 152.,
          136., 136., 136., 2., 2., 2., 0., 0., 0., 0., 0., 0., 0., 0.,
          0., 0., 0., 0., 0., 0., 0., 0., 0., 0., 0., 0., 0., 0., 0., 0.,
          0., 0., 0., 1., 1., 1., 1., 1., 1., 0., 0., 0., 0., 0., 0., 0.,
          0., 0., 0., 0., 0., 1., 1., 1., 0., 0., 0., 89., 89., 89.,
          232., 232., 232., 21., 21., 21., 0., 0., 0., 2., 2., 2., 0.,
          0., 0., 0., 0., 0., 0., 0., 0., 0., 0., 0., 0., 0., 0., 0., 0.,
          0., 0., 0., 0., 0., 0., 0., 0., 0., 0., 0., 0., 0., 0., 0., 0.,
          0., 0., 0., 0., 0., 0., 0., 0., 0., 0., 0., 0., 54., 54., 54.,
          230., 230., 230., 55., 55., 55., 1., 1., 1., 1., 1., 1., 0.,
          0., 0., 0., 0., 0., 0., 0., 0., 0., 0., 0., 0., 0., 0., 0., 0.,
          0., 0., 0., 0., 0., 0., 0., 0., 0., 0., 0., 0., 0., 0., 0., 0.,
          0., 0., 0., 0., 0., 0., 1., 1., 1., 0., 0., 0., 4., 4., 4.,
          151., 151., 151., 70., 70., 70., 2., 2., 2., 0., 0., 0., 0.,
          0., 0., 0., 0., 0., 0., 0., 0., 0., 0., 0., 0., 0., 0., 0., 0.,
          0., 0., 0., 0., 0., 0., 0., 0., 0., 0., 0., 0., 0., 0., 0., 0.,
          0., 0., 0., 0., 0., 0., 4., 4., 4., 0., 0., 0., 0., 0., 0., 2.,
          2., 2., 0., 0., 0., 1., 1., 1., 2., 2., 2., 0., 0., 0., 0., 0.,
          0., 0., 0., 0., 0., 0., 0., 0., 0., 0., 0., 0., 0., 0., 0., 0.,
          0., 0., 0., 0., 0., 0., 0., 0., 0., 0., 0., 0., 0., 0., 0., 0.,
          0., 0., 0., 0., 0., 1., 1., 1., 0., 0., 0., 0., 0., 0., 0., 0.,
          0., 0., 0., 0., 2., 2., 2., 0., 0., 0., 0., 0., 0., 0., 0., 0.,
          0., 0., 0., 0., 0., 0. ]
      - [ 0., 0., 0., 0., 0., 0., 0., 0., 0., 0., 0., 0., 0., 0., 0., 0.,
          0., 0., 0., 0., 0., 0., 0., 0., 0., 0., 0., 2., 2., 2., 0., 0.,
          0., 0., 0., 0., 0., 0., 0., 4., 4., 4., 0., 0., 0., 1., 1., 1.,
          0., 0., 0., 0., 0., 0., 0., 0., 0., 0., 0., 0., 0., 0., 0., 0.,
          0., 0., 0., 0., 0., 0., 0., 0., 0., 0., 0., 0., 0., 0., 0., 0.,
          0., 0., 0., 0., 0., 0., 0., 0., 0., 0., 0., 0., 0., 3., 3., 3.,
          3., 3., 3., 0., 0., 0., 1., 1., 1., 0., 0., 0., 0., 0., 0., 0.,
          0., 0., 0., 0., 0., 0., 0., 0., 0., 0., 0., 0., 0., 0., 0., 0.,
          0., 0., 0., 0., 0., 0., 0., 0., 0., 0., 0., 0., 0., 0., 0., 0.,
          0., 0., 0., 2., 2., 2., 24., 24., 24., 15., 15., 15., 0., 0.,
          0., 1., 1., 1., 2., 2., 2., 0., 0., 0., 0., 0., 0., 0., 0., 0.,
          0., 0., 0., 0., 0., 0., 0., 0., 0., 0., 0., 0., 0., 0., 0., 0.,
          0., 0., 0., 0., 0., 0., 0., 0., 0., 0., 0., 0., 0., 0., 0., 0.,
          0., 44., 44., 44., 234., 234., 234., 112., 112., 112., 0., 0.,
          0., 1., 1., 1., 0., 0., 0., 3., 3., 3., 0., 0., 0., 0., 0., 0.,
          0., 0., 0., 0., 0., 0., 0., 0., 0., 0., 0., 0., 0., 0., 0., 0.,
          0., 0., 0., 0., 0., 0., 0., 0., 0., 0., 0., 0., 0., 0., 1., 1.,
          1., 103., 103., 103., 230., 230., 230., 52., 52., 52., 2., 2.,
          2., 0., 0., 0., 0., 0., 0., 0., 0., 0., 0., 0., 0., 0., 0., 0.,
          0., 0., 0., 0., 0., 0., 0., 0., 0., 0., 0., 0., 0., 0., 0., 0.,
          0., 0., 0., 0., 0., 0., 0., 0., 0., 0., 0., 0., 0., 0., 11.,
          11., 11., 193., 193., 193., 193., 193., 193., 0., 0., 0., 0.,
          0., 0., 3., 3., 3., 4., 4., 4., 0., 0., 0., 0., 0., 0., 0., 0.,
          0., 0., 0., 0., 0., 0., 0., 0., 0., 0., 0., 0., 0., 0., 0., 0.,
          0., 0., 0., 0., 0., 0., 0., 0., 0., 0., 0., 0., 0., 0., 0.,
          74., 74., 74., 251., 251., 251., 149., 149., 149., 0., 0., 0.,
          3., 3., 3., 0., 0., 0., 1., 1., 1., 0., 0., 0., 0., 0., 0., 0.,
          0., 0., 0., 0., 0., 0., 0., 0., 0., 0., 0., 0., 0., 0., 0., 0.,
          0., 0., 0., 0., 0., 0., 0., 0., 0., 0., 0., 0., 0., 0., 0., 0.,
          96., 96., 96., 249., 249., 249., 69., 69., 69., 0., 0., 0., 0.,
          0., 0., 2., 2., 2., 0., 0., 0., 1., 1., 1., 0., 0., 0., 0., 0.,
          0., 0., 0., 0., 0., 0., 0., 0., 0., 0., 0., 0., 0., 0., 0., 0.,
          0., 0., 0., 0., 0., 0., 0., 0., 0., 0., 0., 0., 0., 0., 0.,
          93., 93., 93., 245., 245., 245., 31., 31., 31., 0., 0., 0., 0.,
          0., 0., 3., 3., 3., 0., 0., 0., 0., 0., 0., 0., 0., 0., 0., 0.,
          0., 0., 0., 0., 0., 0., 0., 0., 0., 0., 0., 0., 0., 0., 0., 0.,
          0., 0., 0., 0., 0., 0., 0., 0., 0., 0., 0., 0., 0., 0., 0.,
          91., 91., 91., 255., 255., 255., 88., 88., 88., 3., 3., 3., 0.,
          0., 0., 0., 0., 0., 2., 2., 2., 0., 0., 0., 0., 0., 0., 0., 0.,
          0., 0., 0., 0., 0., 0., 0., 0., 0., 0., 0., 0., 0., 0., 0., 0.,
          0., 0., 0., 0., 0., 0., 0., 0., 0., 0., 0., 0., 0., 0., 0.,
          94., 94., 94., 254., 254., 254., 100., 100., 100., 0., 0., 0.,
          1., 1., 1., 0., 0., 0., 0., 0., 0., 0., 0., 0., 0., 0., 0., 0.,
          0., 0., 0., 0., 0., 0., 0., 0., 0., 0., 0., 0., 0., 0., 0., 0.,
          0., 0., 0., 0., 0., 0., 0., 0., 0., 0., 0., 0., 0., 0., 0., 0.,
          93., 93., 93., 254., 254., 254., 152., 152., 152., 0., 0., 0.,
          1., 1., 1., 2., 2., 2., 0., 0., 0., 2., 2., 2., 0., 0., 0., 0.,
          0., 0., 0., 0., 0., 0., 0., 0., 0., 0., 0., 0., 0., 0., 0., 0.,
          0., 0., 0., 0., 0., 0., 0., 0., 0., 0., 0., 0., 0., 0., 0., 0.,
          57., 57., 57., 242., 242., 242., 190., 190., 190., 1., 1., 1.,
          1., 1., 1., 0., 0., 0., 1., 1., 1., 2., 2., 2., 0., 0., 0., 0.,
          0., 0., 0., 0., 0., 0., 0., 0., 0., 0., 0., 0., 0., 0., 0., 0.,
          0., 0., 0., 0., 0., 0., 0., 0., 0., 0., 0., 0., 0., 0., 0., 0.,
          30., 30., 30., 209., 209., 209., 193., 193., 193., 0., 0., 0.,
          1., 1., 1., 0., 0., 0., 2., 2., 2., 0., 0., 0., 0., 0., 0., 0.,
          0., 0., 0., 0., 0., 0., 0., 0., 0., 0., 0., 0., 0., 0., 0., 0.,
          0., 0., 0., 0., 0., 0., 0., 0., 0., 0., 0., 0., 0., 0., 0., 0.,
          1., 1., 1., 114., 114., 114., 219., 219., 219., 32., 32., 32.,
          1., 1., 1., 0., 0., 0., 0., 0., 0., 1., 1., 1., 0., 0., 0., 0.,
          0., 0., 0., 0., 0., 0., 0., 0., 0., 0., 0., 0., 0., 0., 0., 0.,
          0., 0., 0., 0., 0., 0., 0., 0., 0., 0., 0., 0., 0., 0., 0., 0.,
          1., 1., 1., 42., 42., 42., 252., 252., 252., 135., 135., 135.,
          19., 19., 19., 2., 2., 2., 0., 0., 0., 0., 0., 0., 0., 0., 0.,
          0., 0., 0., 0., 0., 0., 0., 0., 0., 0., 0., 0., 0., 0., 0., 0.,
          0., 0., 0., 0., 0., 0., 0., 0., 0., 0., 0., 0., 0., 0., 0., 0.,
          0., 1., 1., 1., 0., 0., 0., 173., 173., 173., 255., 255., 255.,
          86., 86., 86., 3., 3., 3., 0., 0., 0., 0., 0., 0., 0., 0., 0.,
          0., 0., 0., 0., 0., 0., 0., 0., 0., 0., 0., 0., 0., 0., 0., 0.,
          0., 0., 0., 0., 0., 0., 0., 0., 0., 0., 0., 0., 0., 0., 0., 0.,
          0., 0., 0., 0., 0., 0., 0., 10., 10., 10., 38., 38., 38., 11.,
          11., 11., 0., 0., 0., 1., 1., 1., 0., 0., 0., 0., 0., 0., 0.,
          0., 0., 0., 0., 0., 0., 0., 0., 0., 0., 0., 0., 0., 0., 0., 0.,
          0., 0., 0., 0., 0., 0., 0., 0., 0., 0., 0., 0., 0., 0., 0., 0.,
          3., 3., 3., 4., 4., 4., 0., 0., 0., 1., 1., 1., 0., 0., 0., 0.,
          0., 0., 0., 0., 0., 0., 0., 0., 0., 0., 0., 0., 0., 0., 0., 0.,
          0., 0., 0., 0., 0., 0., 0., 0., 0., 0., 0., 0., 0., 0., 0., 0.,
          0., 0., 0., 0., 0., 0., 0., 0., 0., 0., 0., 0., 0., 0., 0., 0.,
          0., 0., 3., 3., 3., 0., 0., 0., 0., 0., 0., 3., 3., 3., 0., 0.,
          0., 0., 0., 0., 0., 0., 0., 0., 0., 0., 0., 0., 0., 0., 0., 0. ]
      - [ 0., 0., 0., 0., 0., 0., 0., 0., 0., 0., 0., 0., 0., 0., 0., 0.,
          0., 0., 0., 0., 0., 0., 0., 0., 0., 0., 0., 0., 0., 0., 0., 0.,
          0., 2., 2., 2., 0., 0., 0., 0., 0., 0., 1., 1., 1., 0., 0., 0.,
          0., 0., 0., 0., 0., 0., 0., 0., 0., 0., 0., 0., 0., 0., 0., 0.,
          0., 0., 0., 0., 0., 0., 0., 0., 0., 0., 0., 0., 0., 0., 0., 0.,
          0., 0., 0., 0., 1., 1., 1., 0., 0., 0., 3., 3., 3., 0., 0., 0.,
          0., 0., 0., 4., 4., 4., 0., 0., 0., 0., 0., 0., 0., 0., 0., 0.,
          0., 0., 0., 0., 0., 0., 0., 0., 0., 0., 0., 0., 0., 0., 0., 0.,
          0., 0., 0., 0., 0., 0., 0., 0., 0., 0., 0., 0., 0., 0., 0., 0.,
          0., 0., 0., 1., 1., 1., 0., 0., 0., 0., 0., 0., 0., 0., 0., 0.,
          0., 0., 0., 0., 0., 1., 1., 1., 0., 0., 0., 0., 0., 0., 0., 0.,
          0., 0., 0., 0., 0., 0., 0., 0., 0., 0., 0., 0., 0., 0., 0., 0.,
          0., 0., 0., 0., 0., 0., 0., 0., 0., 0., 0., 0., 1., 1., 1., 0.,
          0., 0., 0., 0., 0., 68., 68., 68., 108., 108., 108., 14., 14.,
          14., 0., 0., 0., 1., 1., 1., 0., 0., 0., 0., 0., 0., 0., 0.,
          0., 0., 0., 0., 0., 0., 0., 0., 0., 0., 0., 0., 0., 0., 0., 0.,
          0., 0., 0., 0., 0., 0., 0., 0., 0., 0., 0., 0., 1., 1., 1., 0.,
          0., 0., 1., 1., 1., 163., 163., 163., 251., 251., 251., 142.,
          142., 142., 3., 3., 3., 1., 1., 1., 0., 0., 0., 0., 0., 0., 0.,
          0., 0., 0., 0., 0., 0., 0., 0., 0., 0., 0., 0., 0., 0., 0., 0.,
          0., 0., 0., 0., 0., 0., 0., 0., 0., 0., 0., 0., 0., 0., 0., 0.,
          1., 1., 1., 12., 12., 12., 188., 188., 188., 255., 255., 255.,
          144., 144., 144., 1., 1., 1., 0., 0., 0., 0., 0., 0., 0., 0.,
          0., 0., 0., 0., 0., 0., 0., 0., 0., 0., 0., 0., 0., 0., 0., 0.,
          0., 0., 0., 0., 0., 0., 0., 0., 0., 0., 0., 0., 0., 0., 0., 0.,
          0., 0., 2., 2., 2., 62., 62., 62., 242., 242., 242., 245.,
          245., 245., 73., 73., 73., 2., 2., 2., 0., 0., 0., 0., 0., 0.,
          0., 0., 0., 0., 0., 0., 0., 0., 0., 0., 0., 0., 0., 0., 0., 0.,
          0., 0., 0., 0., 0., 0., 0., 0., 0., 0., 0., 0., 0., 0., 0., 0.,
          0., 0., 0., 0., 2., 2., 2., 166., 166., 166., 255., 255., 255.,
          233., 233., 233., 33., 33., 33., 0., 0., 0., 0., 0., 0., 0.,
          0., 0., 0., 0., 0., 0., 0., 0., 0., 0., 0., 0., 0., 0., 0., 0.,
          0., 3., 3., 3., 1., 1., 1., 0., 0., 0., 2., 2., 2., 0., 0., 0.,
          0., 0., 0., 1., 1., 1., 84., 84., 84., 246., 246., 246., 253.,
          253., 253., 156., 156., 156., 1., 1., 1., 0., 0., 0., 4., 4.,
          4., 0., 0., 0., 0., 0., 0., 0., 0., 0., 0., 0., 0., 0., 0., 0.,
          2., 2., 2., 0., 0., 0., 0., 0., 0., 0., 0., 0., 0., 0., 0., 2.,
          2., 2., 1., 1., 1., 67., 67., 67., 226., 226., 226., 255.,
          255., 255., 255., 255., 255., 67., 67., 67., 1., 1., 1., 0.,
          0., 0., 0., 0., 0., 0., 0., 0., 0., 0., 0., 0., 0., 0., 0., 0.,
          0., 1., 1., 1., 1., 1., 1., 0., 0., 0., 3., 3., 3., 5., 5., 5.,
          0., 0., 0., 0., 0., 0., 71., 71., 71., 231., 231., 231., 255.,
          255., 255., 252., 252., 252., 254., 254., 254., 67., 67., 67.,
          0., 0., 0., 5., 5., 5., 0., 0., 0., 0., 0., 0., 0., 0., 0., 0.,
          0., 0., 0., 0., 0., 0., 0., 0., 0., 0., 0., 0., 0., 0., 2., 2.,
          2., 0., 0., 0., 5., 5., 5., 55., 55., 55., 216., 216., 216.,
          255., 255., 255., 191., 191., 191., 229., 229., 229., 255.,
          255., 255., 72., 72., 72., 2., 2., 2., 0., 0., 0., 0., 0., 0.,
          0., 0., 0., 0., 0., 0., 0., 0., 0., 0., 0., 0., 1., 1., 1., 1.,
          1., 1., 3., 3., 3., 0., 0., 0., 1., 1., 1., 8., 8., 8., 175.,
          175., 175., 255., 255., 255., 207., 207., 207., 35., 35., 35.,
          151., 151., 151., 255., 255., 255., 66., 66., 66., 1., 1., 1.,
          1., 1., 1., 0., 0., 0., 0., 0., 0., 0., 0., 0., 0., 0., 0., 0.,
          0., 0., 1., 1., 1., 0., 0., 0., 0., 0., 0., 3., 3., 3., 0., 0.,
          0., 2., 2., 2., 115., 115., 115., 184., 184., 184., 58., 58.,
          58., 0., 0., 0., 149., 149., 149., 255., 255., 255., 73., 73.,
          73., 1., 1., 1., 0., 0., 0., 2., 2., 2., 0., 0., 0., 0., 0.,
          0., 0., 0., 0., 0., 0., 0., 0., 0., 0., 1., 1., 1., 1., 1., 1.,
          2., 2., 2., 0., 0., 0., 0., 0., 0., 4., 4., 4., 14., 14., 14.,
          0., 0., 0., 0., 0., 0., 169., 169., 169., 252., 252., 252.,
          68., 68., 68., 0., 0., 0., 0., 0., 0., 0., 0., 0., 0., 0., 0.,
          0., 0., 0., 0., 0., 0., 0., 0., 0., 0., 0., 0., 0., 0., 0., 0.,
          0., 0., 0., 0., 0., 0., 0., 0., 1., 1., 1., 0., 0., 0., 0., 0.,
          0., 1., 1., 1., 0., 0., 0., 133., 133., 133., 255., 255., 255.,
          72., 72., 72., 1., 1., 1., 0., 0., 0., 0., 0., 0., 0., 0., 0.,
          0., 0., 0., 0., 0., 0., 0., 0., 0., 0., 0., 0., 0., 0., 0., 0.,
          0., 0., 0., 0., 0., 0., 0., 0., 0., 0., 0., 0., 0., 0., 0., 0.,
          0., 1., 1., 1., 1., 1., 1., 136., 136., 136., 254., 254., 254.,
          55., 55., 55., 0., 0., 0., 4., 4., 4., 0., 0., 0., 0., 0., 0.,
          0., 0., 0., 0., 0., 0., 0., 0., 0., 0., 0., 0., 0., 0., 0., 0.,
          0., 0., 0., 0., 0., 0., 0., 0., 0., 0., 0., 0., 0., 0., 0., 0.,
          0., 0., 0., 0., 0., 0., 0., 46., 46., 46., 130., 130., 130.,
          18., 18., 18., 6., 6., 6., 0., 0., 0., 3., 3., 3., 0., 0., 0.,
          0., 0., 0., 0., 0., 0., 0., 0., 0., 0., 0., 0., 0., 0., 0., 0.,
          0., 0., 0., 0., 0., 0., 0., 0., 0., 0., 0., 0., 0., 0., 0., 0.,
          0., 0., 0., 0., 0., 0., 0., 0., 0., 0., 1., 1., 1., 0., 0., 0.,
          0., 0., 0., 0., 0., 0., 0., 0., 0., 0., 0., 0., 0., 0., 0., 0.,
          0., 0., 0., 0., 0., 0., 0., 0., 0., 0., 0., 0., 0., 0., 0., 0.,
          0., 0., 0., 0., 0., 0., 0., 0., 0., 0., 0., 0., 0., 0., 0., 0.,
          2., 2., 2., 0., 0., 0., 0., 0., 0., 1., 1., 1., 4., 4., 4., 0.,
          0., 0., 0., 0., 0., 0., 0., 0., 0., 0., 0., 0., 0., 0., 0., 0.,
          0. ]
      - [ 0., 0., 0., 1., 1., 1., 2., 2., 2., 0., 0., 0., 0., 0., 0., 0.,
          0., 0., 2., 2., 2., 0., 0., 0., 0., 0., 0., 1., 1., 1., 0., 0.,
          0., 3., 3., 3., 0., 0., 0., 1., 1., 1., 3., 3., 3., 0., 0., 0.,
          0., 0., 0., 0., 0., 0., 0., 0., 0., 0., 0., 0., 3., 3., 3., 0.,
          0., 0., 0., 0., 0., 1., 1., 1., 0., 0., 0., 2., 2., 2., 0., 0.,
          0., 0., 0., 0., 0., 0., 0., 0., 0., 0., 2., 2., 2., 0., 0., 0.,
          4., 4., 4., 0., 0., 0., 0., 0., 0., 4., 4., 4., 0., 0., 0., 0.,
          0., 0., 0., 0., 0., 0., 0., 0., 0., 0., 0., 0., 0., 0., 0., 0.,
          0., 1., 1., 1., 0., 0., 0., 2., 2., 2., 1., 1., 1., 2., 2., 2.,
          0., 0., 0., 4., 4., 4., 0., 0., 0., 0., 0., 0., 0., 0., 0., 0.,
          0., 0., 5., 5., 5., 0., 0., 0., 0., 0., 0., 0., 0., 0., 0., 0.,
          0., 0., 0., 0., 0., 0., 0., 1., 1., 1., 0., 0., 0., 0., 0., 0.,
          2., 2., 2., 0., 0., 0., 0., 0., 0., 0., 0., 0., 0., 0., 0.,
          46., 46., 46., 61., 61., 61., 0., 0., 0., 4., 4., 4., 0., 0.,
          0., 0., 0., 0., 0., 0., 0., 0., 0., 0., 0., 0., 0., 0., 0., 0.,
          0., 0., 0., 1., 1., 1., 0., 0., 0., 0., 0., 0., 1., 1., 1., 0.,
          0., 0., 0., 0., 0., 3., 3., 3., 2., 2., 2., 32., 32., 32.,
          205., 205., 205., 218., 218., 218., 39., 39., 39., 0., 0., 0.,
          1., 1., 1., 0., 0., 0., 0., 0., 0., 0., 0., 0., 0., 0., 0., 0.,
          0., 0., 0., 0., 0., 0., 0., 0., 0., 0., 0., 2., 2., 2., 0., 0.,
          0., 0., 0., 0., 0., 0., 0., 0., 0., 0., 0., 0., 0., 123., 123.,
          123., 250., 250., 250., 255., 255., 255., 91., 91., 91., 0.,
          0., 0., 0., 0., 0., 1., 1., 1., 1., 1., 1., 0., 0., 0., 0., 0.,
          0., 0., 0., 0., 0., 0., 0., 2., 2., 2., 0., 0., 0., 1., 1., 1.,
          0., 0., 0., 2., 2., 2., 2., 2., 2., 0., 0., 0., 62., 62., 62.,
          240., 240., 240., 179., 179., 179., 247., 247., 247., 113.,
          113., 113., 2., 2., 2., 1., 1., 1., 1., 1., 1., 0., 0., 0., 0.,
          0., 0., 0., 0., 0., 0., 0., 0., 0., 0., 0., 0., 0., 0., 1., 1.,
          1., 1., 1., 1., 0., 0., 0., 0., 0., 0., 0., 0., 0., 36., 36.,
          36., 219., 219., 219., 163., 163., 163., 83., 83., 83., 255.,
          255., 255., 154., 154., 154., 4., 4., 4., 0., 0., 0., 0., 0.,
          0., 2., 2., 2., 0., 0., 0., 0., 0., 0., 0., 0., 0., 0., 0., 0.,
          2., 2., 2., 0., 0., 0., 2., 2., 2., 0., 0., 0., 0., 0., 0.,
          28., 28., 28., 174., 174., 174., 177., 177., 177., 3., 3., 3.,
          44., 44., 44., 246., 246., 246., 159., 159., 159., 5., 5., 5.,
          0., 0., 0., 0., 0., 0., 0., 0., 0., 0., 0., 0., 0., 0., 0., 0.,
          0., 0., 0., 0., 0., 0., 0., 0., 5., 5., 5., 0., 0., 0., 0., 0.,
          0., 0., 0., 0., 29., 29., 29., 114., 114., 114., 27., 27., 27.,
          3., 3., 3., 4., 4., 4., 233., 233., 233., 161., 161., 161., 3.,
          3., 3., 2., 2., 2., 0., 0., 0., 0., 0., 0., 0., 0., 0., 0., 0.,
          0., 0., 0., 0., 0., 0., 0., 0., 0., 0., 0., 0., 0., 3., 3., 3.,
          0., 0., 0., 1., 1., 1., 0., 0., 0., 0., 0., 0., 2., 2., 2., 0.,
          0., 0., 11., 11., 11., 234., 234., 234., 156., 156., 156., 3.,
          3., 3., 0., 0., 0., 3., 3., 3., 1., 1., 1., 0., 0., 0., 0., 0.,
          0., 0., 0., 0., 0., 0., 0., 3., 3., 3., 2., 2., 2., 0., 0., 0.,
          1., 1., 1., 0., 0., 0., 0., 0., 0., 3., 3., 3., 0., 0., 0., 4.,
          4., 4., 4., 4., 4., 233., 233., 233., 159., 159., 159., 5., 5.,
          5., 0., 0., 0., 0., 0., 0., 0., 0., 0., 0., 0., 0., 0., 0., 0.,
          0., 0., 0., 0., 0., 0., 0., 0., 0., 0., 0., 0., 0., 0., 0., 1.,
          1., 1., 0., 0., 0., 0., 0., 0., 0., 0., 0., 0., 0., 0., 0., 0.,
          0., 6., 6., 6., 227., 227., 227., 163., 163., 163., 1., 1., 1.,
          1., 1., 1., 0., 0., 0., 0., 0., 0., 0., 0., 0., 0., 0., 0., 0.,
          0., 0., 0., 0., 0., 1., 1., 1., 2., 2., 2., 1., 1., 1., 0., 0.,
          0., 0., 0., 0., 0., 0., 0., 0., 0., 0., 1., 1., 1., 3., 3., 3.,
          0., 0., 0., 170., 170., 170., 162., 162., 162., 2., 2., 2., 0.,
          0., 0., 0., 0., 0., 0., 0., 0., 0., 0., 0., 0., 0., 0., 0., 0.,
          0., 0., 0., 0., 0., 0., 0., 0., 0., 0., 0., 0., 0., 0., 0., 0.,
          0., 0., 0., 2., 2., 2., 0., 0., 0., 0., 0., 0., 0., 0., 0., 2.,
          2., 2., 142., 142., 142., 192., 192., 192., 6., 6., 6., 0., 0.,
          0., 3., 3., 3., 0., 0., 0., 0., 0., 0., 0., 0., 0., 0., 0., 0.,
          0., 0., 0., 0., 0., 0., 0., 0., 0., 0., 0., 0., 2., 2., 2., 0.,
          0., 0., 0., 0., 0., 1., 1., 1., 1., 1., 1., 14., 14., 14., 48.,
          48., 48., 138., 138., 138., 254., 254., 254., 63., 63., 63.,
          0., 0., 0., 0., 0., 0., 0., 0., 0., 0., 0., 0., 0., 0., 0., 0.,
          0., 0., 0., 0., 0., 0., 0., 0., 1., 1., 1., 1., 1., 1., 0., 0.,
          0., 1., 1., 1., 0., 0., 0., 0., 0., 0., 80., 80., 80., 194.,
          194., 194., 234., 234., 234., 255., 255., 255., 245., 245.,
          245., 101., 101., 101., 2., 2., 2., 1., 1., 1., 0., 0., 0., 0.,
          0., 0., 0., 0., 0., 0., 0., 0., 0., 0., 0., 0., 0., 0., 0., 0.,
          0., 0., 0., 0., 4., 4., 4., 0., 0., 0., 0., 0., 0., 6., 6., 6.,
          75., 75., 75., 169., 169., 169., 133., 133., 133., 66., 66.,
          66., 41., 41., 41., 13., 13., 13., 0., 0., 0., 2., 2., 2., 2.,
          2., 2., 0., 0., 0., 0., 0., 0., 0., 0., 0., 0., 0., 0., 1., 1.,
          1., 3., 3., 3., 0., 0., 0., 0., 0., 0., 1., 1., 1., 3., 3., 3.,
          0., 0., 0., 0., 0., 0., 0., 0., 0., 0., 0., 0., 1., 1., 1., 2.,
          2., 2., 4., 4., 4., 0., 0., 0., 0., 0., 0., 1., 1., 1., 0., 0.,
          0., 0., 0., 0., 0., 0., 0., 0., 0., 0., 0., 0., 0., 1., 1., 1.,
          1., 1., 1., 0., 0., 0., 0., 0., 0., 1., 1., 1., 3., 3., 3., 1.,
